
\data\
ngram 1=52393
ngram 2=227750

\1-grams:
-2.274695	A	-0.2881759
-5.026936	A,	-0.08310796
-4.783897	A.	-0.1950683
-5.628995	ABB,	-0.09584706
-5.327966	ABC	-0.07288232
-5.327966	ABC,	-0.09249307
-5.327966	ABC-Roma,	-0.0842278
-4.930026	ABCD	-0.1309735
-5.151874	ABCD,	-0.09494708
-5.628995	ABI	-0.0958593
-5.327966	ABL	-0.09188898
-5.628995	ABS	-0.09540189
-4.515052	ACM	-0.05923974
-5.327966	ACM,	-0.09571133
-5.628995	ACSP	-0.07288338
-5.628995	ACT	-0.0958644
-5.628995	AD	-0.09586644
-5.628995	ADIANTE	-0.09586644
-4.930026	AEB	-0.09057188
-5.628995	AEB,	-0.0955265
-5.628995	AFA	-0.07288338
-5.628995	AFA,	-0.09585419
-5.628995	AFPs	-0.09514949
-5.151874	AGF	-0.09547748
-5.628995	AGORA,	-0.0958644
-5.628995	AGRÍCOLA,	-0.09586644
-5.628995	AIS	-0.09233053
-5.628995	AIS,	-0.08521926
-5.628995	AL:	-0.09584603
-4.930026	ALBERTO	-0.4443994
-5.628995	ALEXANDRE	-0.09586644
-5.628995	ALLAIN	-0.07288338
-5.628995	ALMEIDA,	-0.08987509
-5.628995	ALONSO,	-0.08987509
-5.628995	ALS	-0.07288338
-5.628995	AM	-0.0789275
-5.628995	AMANHÃ	-0.07288338
-5.628995	AMANTES,	-0.0789275
-5.628995	AMSTERDÃ	-0.07288338
-5.628995	AMT	-0.07288338
-5.628995	AMÉRICA	-0.09584195
-5.628995	AMÉRICANeneca;	-0.09586644
-5.628995	ANDRÉ	-0.09586644
-5.628995	ANDRÉA	-0.09586644
-5.628995	ANJOS	-0.09585828
-5.628995	ANJOS,	-0.0789275
-5.628995	ANOITEÇA,	-0.0789275
-5.628995	ANPC,	-0.09584501
-5.628995	ANTES	-0.09586542
-5.628995	ANTUNES	-0.09233053
-5.151874	ANTÔNIO	-0.2294208
-5.628995	AP,	-0.08521926
-5.628995	APOIAR	-0.09586644
-5.628995	APPC	-0.07288338
-5.628995	APROXIMOU-SE	-0.09586644
-5.628995	ARRASADA	-0.09519345
-5.628995	ART	-0.09585114
-5.628995	ARTE	-0.09584195
-5.327966	AR»	-0.2926404
-5.628995	ASSIM	-0.09586542
-5.628995	ASSPM	-0.07288338
-5.628995	ASTROS,	-0.09581745
-5.628995	ATP	-0.0958644
-5.628995	ATP,	-0.09579194
-5.628995	ATRAPALHA	-0.09355409
-5.628995	ATT	-0.08752949
-5.327966	AUGUSTO	-0.09585728
-5.628995	AVENDANO	-0.08752949
-5.628995	AVESTRUZ	-0.09586644
-5.327966	AVP	-0.06408766
-5.628995	Aalto	-0.09363718
-5.327966	Aaron	-0.09586442
-5.628995	Ab'Saber	-0.09519345
-5.628995	Ab'Saber,	-0.08423617
-5.628995	Aba	-0.0955551
-5.628995	Abafa	-0.09257017
-5.628995	Abaixo	-0.09578378
-5.628995	Abaixo,	-0.08423617
-5.628995	Abalado,	-0.08521926
-5.628995	Abandonamos	-0.08521926
-5.628995	Abandonando	-0.09586542
-5.628995	Abarrotada	-0.0789275
-5.628995	Abastecimento,	-0.09586644
-5.628995	Abatido,	-0.09531301
-5.628995	Abbado,	-0.09586032
-5.628995	Abdalla	-0.07288338
-5.327966	Abdenur	-0.06915341
-5.628995	Abdib	-0.07288338
-5.327966	Abdul	-0.09586544
-5.628995	Abdula	-0.09586644
-5.628995	Abdullah	-0.09586644
-5.628995	Abe	-0.09586644
-5.628995	Abel	-0.09586542
-5.628995	Abelha,	-0.09586644
-5.628995	Abercrombie	-0.09583174
-5.628995	Abernéssia	-0.07288338
-5.628995	Aberta	-0.09173445
-5.026936	Aberto	-0.3277971
-5.628995	Aberto,	-0.09508305
-5.628995	Abicalçados	-0.09586644
-5.628995	Abinee	-0.07288338
-5.628995	Abinne,	-0.08423617
-5.628995	Abit,	-0.08648802
-5.628995	Abollhasan	-0.09586644
-5.628995	Abouhalima	-0.09546931
-5.628995	Abrahams,	-0.09585726
-5.327966	Abram	-0.09586544
-5.628995	Abramge,	-0.09586644
-5.628995	Abranches	-0.09586542
-5.628995	Abranches,	-0.09586134
-5.628995	Abrandou	-0.09499206
-5.327966	Abrapp	-0.09530997
-5.327966	Abras	-0.07194313
-5.327966	Abras,	-0.06785033
-5.628995	Abravest,	-0.08648802
-5.628995	Abraão,	-0.09586338
-5.151874	Abre	-0.07010623
-4.930026	Abreu	-0.1391559
-4.628995	Abreu,	-0.1430289
-5.327966	Abrir	-0.09373976
-5.327966	Abrolhos,	-0.09158919
-5.628995	Abro»	-0.07288338
-5.628995	Abrão,	-0.09584808
-5.628995	Absolut	-0.09586644
-5.628995	Abstratos	-0.09532731
-5.327966	Abu	-0.09586544
-5.628995	Abílio	-0.0958644
-5.628995	Acabam	-0.09586236
-5.628995	Acabamos	-0.0789275
-5.628995	Acabaram	-0.09585419
-5.628995	Acabarão	-0.09586644
-5.628995	Acabei	-0.09562963
-5.327966	Acabou	-0.08422676
-5.628995	Acabou-se	-0.08423617
-4.783897	Academia	-0.2510081
-5.327966	Acadêmicos	-0.07126978
-5.628995	Acariciou	-0.08521926
-5.628995	Acaso»	-0.07288338
-5.628995	Accugraph	-0.09284051
-5.628995	Aceitei	-0.09584808
-5.628995	Acencio	-0.08752949
-5.628995	Acendeu	-0.09541108
-5.628995	Acervo	-0.0956133
-5.628995	Acesso:	-0.08423617
-5.628995	Acessórios	-0.09585521
-5.026936	Acha	-0.5947923
-5.151874	Acham	-0.4664107
-5.327966	Achava	-0.08551513
-5.327966	Achei	-0.08646301
-4.005746	Acho	-0.674916
-5.151874	Acima	-0.2124043
-5.628995	Acionando	-0.0927069
-5.628995	Acionistas»	-0.09506977
-5.628995	Aclimação	-0.07288338
-5.628995	Aclimação,	-0.09223381
-5.628995	Acompanhada	-0.0789275
-5.628995	Acompanhadas	-0.09397553
-5.628995	Acompanham	-0.08521926
-5.628995	Acompanhar	-0.09294017
-5.628995	Aconselha-se	-0.08521926
-5.628995	Acontece	-0.08648802
-5.628995	Acordeon,	-0.08423617
-5.628995	Acostumado	-0.09570722
-5.628995	Acostumados	-0.08423617
-5.327966	Acqua	-0.06408766
-5.327966	Acre	-0.0728791
-5.026936	Acre,	-0.09232643
-5.026936	Acredita	-0.5947923
-5.628995	Acredita-se	-0.08648802
-5.628995	Acreditamos	-0.08648802
-4.930026	Acredito	-0.2689503
-5.628995	Acredito,	-0.09584706
-5.628995	Acrescenta	-0.08648802
-5.151874	Acrescentou	-0.4664107
-5.628995	Acrescentou:	-0.07020799
-5.628995	Acres»,	-0.09509839
-5.327966	Acrobático	-0.09586544
-5.628995	Acrópole	-0.08752949
-5.628995	Acuados,	-0.0927069
-5.628995	Acusa-se	-0.08521926
-5.628995	Acusada	-0.09397553
-5.628995	Acusavam-no	-0.0789275
-5.628995	Acusações	-0.0789275
-5.628995	Acúmulo	-0.0789275
-5.628995	Adaime	-0.09586644
-5.628995	Adalberto	-0.0789275
-5.628995	Adalgisa»,	-0.09585114
-5.628995	Adami	-0.09514438
-5.628995	Adami,	-0.09514949
-5.628995	Adamir	-0.09584501
-5.628995	Adams	-0.08752949
-5.628995	Adams,	-0.09539985
-5.628995	Adaptado	-0.08987509
-5.628995	Adauto	-0.0958644
-5.327966	Addams	-0.09195282
-5.327966	Addams,	-0.08036391
-5.628995	Addison,	-0.09284051
-5.628995	Adefasagem	-0.09252802
-5.151874	Adelaide	-0.09395401
-5.628995	Adelaide,	-0.09584706
-5.628995	Adelino	-0.09379818
-5.628995	Adelmar	-0.0958644
-5.628995	Adelson	-0.09586644
-5.026936	Ademais,	-0.09236037
-5.327966	Ademar	-0.3156224
-5.628995	Adenauer	-0.07288338
-5.628995	Adermina,	-0.09586644
-5.628995	Adesão	-0.09586032
-5.628995	Adeus,	-0.09173445
-5.628995	Adiantou	-0.09556735
-5.327966	Adib	-0.09586442
-5.628995	Adicionalmente,	-0.09525272
-5.628995	Adicione	-0.08521926
-5.628995	Adidas,	-0.09585114
-5.628995	Adil	-0.07288338
-5.628995	Adimar	-0.09586644
-5.628995	Administrativa,	-0.09576643
-5.628995	Administrativo	-0.09586644
-5.628995	Administrativos	-0.09586542
-4.452904	Administração	-0.3712077
-5.327966	Administrações	-0.09586136
-5.628995	Adminsitração	-0.09584501
-5.628995	Admira	-0.08521926
-5.628995	Admitiu	-0.09583991
-5.628995	Adner	-0.07288338
-5.026936	Adolescente	-0.06848007
-5.628995	Adolescente»	-0.0957552
-5.026936	Adolfo	-0.3455805
-5.628995	Adolphe	-0.09586644
-5.628995	Adoraria	-0.09363718
-5.628995	Adorava	-0.08521926
-5.327966	Adorno,	-0.09214224
-5.628995	Adotou	-0.0939253
-5.628995	Adrian	-0.09586644
-5.628995	Adriana,	-0.08648802
-5.026936	Adriane	-0.09498798
-5.327966	Adriano	-0.09520675
-5.628995	Adriano;	-0.09586644
-5.628995	Adriano»	-0.09507794
-5.628995	Adrieli:	-0.09583481
-5.628995	Adrien	-0.09586644
-5.628995	Adriático	-0.07288338
-5.628995	Adroaldo	-0.09586644
-5.628995	Aduan,	-0.08850516
-5.628995	Aduaneira,	-0.09583174
-5.628995	Adubos	-0.08752949
-5.628995	Adventista	-0.0789275
-5.628995	Adventure	-0.09510759
-5.628995	Advisor»	-0.09558675
-5.628995	Advocaat,	-0.0949757
-5.628995	Advocacia:	-0.07020799
-5.327966	Advogados	-0.05500358
-5.628995	Adylson	-0.09586236
-5.327966	Adyr	-0.0957593
-5.628995	Adão,	-0.09294017
-5.327966	Adélia	-0.2926404
-5.628995	Adílson	-0.09585726
-5.628995	Aedes	-0.09586542
-5.628995	Aero,	-0.08987509
-5.628995	Aeroanta	-0.07288338
-5.628995	Aeroanta,	-0.09586338
-5.628995	Aeroespacial	-0.09583685
-5.628995	Aeronautas,	-0.09571029
-5.628995	Aeronáutica,	-0.09586644
-5.628995	Aeronáutica»	-0.07288338
-5.327966	Aeroporto	-0.07025456
-5.628995	Afanásio	-0.07288338
-5.327966	Afastado	-0.07842643
-5.628995	Afeganistão,	-0.09397553
-5.628995	Affonso	-0.09585419
-5.628995	Afiador	-0.07288338
-5.151874	Afif	-0.09158608
-5.151874	Afinal	-0.07326517
-4.267268	Afinal,	-0.1611331
-5.151874	Afirma	-0.2197575
-5.628995	Afirma-o,	-0.0789275
-5.628995	Afirma-se	-0.09514438
-5.151874	Afirmou	-0.08477458
-5.327966	Afonsa	-0.09572154
-5.151874	Afonso	-0.09580114
-5.151874	Afora	-0.09385048
-5.628995	Afro	-0.07288338
-5.327966	Afrânio	-0.0958634
-5.327966	After	-0.3156224
-5.628995	Agarrado	-0.09428699
-5.628995	Agassi	-0.09514949
-5.628995	Agatha	-0.09586644
-5.327966	Agbo	-0.07278441
-5.628995	Agenor	-0.07288338
-5.628995	Agfa	-0.07288338
-5.628995	Aglomerados	-0.09173445
-5.327966	Agnes	-0.07851353
-5.628995	Agnés	-0.09586644
-4.037931	Agora	-0.1349536
-4.060794	Agora,	-0.1560171
-5.327966	Agora»	-0.0909374
-5.628995	Agostini,	-0.09586644
-5.628995	Agosto	-0.09552344
-4.549814	Agricultura	-0.2170623
-5.327966	Agricultura,	-0.09269459
-5.628995	Agricultura?	-0.07020799
-5.628995	Agride	-0.08521926
-5.628995	Agripino	-0.09585521
-5.026936	Agropecuária	-0.05610871
-5.628995	Agrário	-0.07288338
-5.628995	Agrícola	-0.09586644
-5.628995	Agrícolas	-0.0789275
-5.628995	Agrícolas,	-0.09257017
-5.628995	Agrônomos	-0.08850516
-5.628995	Agua	-0.0789275
-5.628995	Aguardamos	-0.09540189
-5.628995	Aguarde	-0.0927069
-5.628995	Aguas»	-0.08850516
-5.628995	Aguente	-0.09363718
-5.327966	Aguilar	-0.09090953
-5.327966	Aguilar,	-0.09514645
-4.424876	Agência	-0.5835456
-5.628995	Agências	-0.0958644
-5.026936	Ah	-0.3455805
-5.327966	Ah!	-0.289965
-5.026936	Ah,	-0.08652034
-5.628995	Ahern	-0.09233053
-5.628995	Ahistória	-0.0789275
-5.628995	Ahmad	-0.09586644
-5.151874	Ahmed	-0.09586441
-5.327966	Ai	-0.3156071
-5.327966	Ai,	-0.08645675
-4.350242	Aids	-0.4011091
-5.151874	Aids,	-0.0835302
-5.628995	Aids»	-0.08752949
-5.628995	Aikman	-0.0949757
-5.151874	Ailey	-0.09583583
-5.151874	Ailton	-0.09586441
-3.90472	Ainda	-0.4173358
-5.628995	Ainda:	-0.08521926
-5.151874	Air	-0.2294208
-5.628995	Airbus	-0.07288338
-4.628995	Aires	-0.173549
-5.151874	Aires,	-0.07559051
-5.026936	Airlines	-0.1645088
-5.628995	Airton	-0.09586644
-5.628995	Airways,	-0.09173445
-5.628995	Ajaj	-0.08752949
-5.628995	Ajax	-0.08752949
-5.628995	Ajax,	-0.09509839
-5.628995	Ajuda	-0.08423617
-5.628995	Ajustes	-0.09440475
-5.327966	Akabane,	-0.08518267
-5.151874	Akashi,	-0.08421416
-5.628995	Akhavi,	-0.09585216
-5.628995	Akihito,	-0.08752949
-5.628995	Akinwunmi,	-0.09539985
-5.628995	Akira	-0.09586644
-4.725905	Al	-0.07287154
-5.628995	Al-Aouiran	-0.0915902
-5.628995	Al-Aqsa	-0.09564597
-5.628995	Ala	-0.09586644
-5.628995	Aladim	-0.07288338
-5.151874	Alagoas	-0.06775126
-4.930026	Alagoas,	-0.09552243
-5.628995	Alagoas...»	-0.07020799
-5.327966	Alain	-0.09586544
-5.628995	Alameda	-0.09379818
-5.628995	Alami	-0.08752949
-4.930026	Alan	-0.09586135
-5.327966	Alasca,	-0.07891586
-5.628995	Alaska	-0.09586338
-5.327966	Albano	-0.07281347
-5.628995	Albano,	-0.08752949
-5.628995	Alberico	-0.0958644
-5.628995	Albero,	-0.08648802
-5.026936	Albert	-0.09586237
-5.628995	Alberta	-0.09586644
-5.628995	Albertini	-0.09584399
-3.938799	Alberto	-0.3100746
-5.327966	Alberto,	-0.09577155
-5.628995	Alberton,	-0.08423617
-5.628995	Albertson	-0.09586542
-5.628995	Albizu,	-0.09539985
-5.327966	Albuquerque	-0.09532018
-5.628995	Alca	-0.0957552
-5.628995	Alcatel	-0.09584706
-5.628995	Alcatrazes	-0.09583787
-5.628995	Alceu	-0.09586644
-5.628995	Alciberg,	-0.09575111
-5.628995	Alcides	-0.09586236
-5.628995	Alcyon	-0.08752949
-5.628995	Alcântara	-0.0949757
-5.628995	Alcântara,	-0.09284051
-5.628995	Alcântara»,	-0.09532323
-4.930026	Aldair	-0.2497652
-5.151874	Aldair,	-0.09244163
-5.628995	Aldergrove,	-0.09323698
-5.327966	Aldo	-0.09571235
-5.628995	Aldrabões	-0.07288338
-5.628995	Aldus	-0.07288338
-5.628995	Alea	-0.09583889
-5.628995	Alea,	-0.08648802
-4.850844	Alec	-0.134383
-5.628995	Alechinsky	-0.07288338
-5.628995	Alegam	-0.08648802
-5.628995	Alegando	-0.09584501
-5.026936	Alegre	-0.0621543
-5.151874	Alegre,	-0.09577868
-5.628995	Alegre:	-0.09586644
-5.628995	Aleijadinho	-0.09569906
-5.628995	Aleixo	-0.07288338
-5.327966	Alejandro	-0.09586544
-4.026936	Alemanha	-0.4330446
-4.327966	Alemanha,	-0.1337474
-5.628995	Alemanha:	-0.08521926
-5.628995	Alemã	-0.0789275
-5.327966	Alemães	-0.09584197
-4.783897	Alemão	-0.27162
-5.026936	Alemão,	-0.0912665
-4.674753	Alencar	-0.1226052
-5.026936	Alencar,	-0.07302646
-5.327966	Alesi	-0.09463406
-5.628995	Alesi,	-0.09440475
-4.850844	Alessandro	-0.2294177
-4.930026	Alex	-0.0957889
-5.628995	Alex,	-0.08850516
-4.725905	Alexander	-0.09585726
-5.151874	Alexandra	-0.07892539
-4.674753	Alexandre	-0.2064171
-5.628995	Alexandria	-0.0958246
-4.850844	Alexis	-0.3633305
-5.628995	Alf	-0.09578072
-5.327966	Alfio	-0.3156193
-5.628995	Alfonsín,	-0.09579603
-5.628995	Alfredinho	-0.09585726
-4.725905	Alfredo	-0.09583685
-5.628995	Alfredo;	-0.09586644
-5.327966	Alfândega	-0.08331599
-5.327966	Algo	-0.09429418
-5.628995	Alguma	-0.0957552
-4.515052	Algumas	-0.09463097
-4.151874	Alguns	-0.09248277
-5.327966	Alguém	-0.09523844
-4.725905	Ali	-0.1402366
-4.850844	Ali,	-0.08764285
-5.628995	Aliada!	-0.07020799
-5.628995	Aliados	-0.0789275
-5.628995	Alianza	-0.07288338
-5.327966	Aliança	-0.09586544
-5.327966	Alice	-0.09355001
-5.628995	Alimentação	-0.08752949
-5.628995	Alimentos	-0.08752949
-5.628995	Aline	-0.09284051
-5.327966	Aliás	-0.09150468
-4.327966	Aliás,	-0.1728528
-5.628995	Alketas	-0.09586644
-5.151874	Alkimar	-0.09583686
-5.327966	Alkimin	-0.08647239
-5.628995	Allan	-0.09586542
-5.628995	Allgemeine»	-0.09586338
-5.327966	Allman	-0.3156214
-5.628995	Alma	-0.09586644
-5.327966	Almada,	-0.09579605
-5.628995	Almandoz	-0.07288338
-5.628995	Almandoz,	-0.09408723
-5.628995	Almap	-0.07288338
-5.151874	Almap/BBDO	-0.452806
-5.327966	Alma»,	-0.08392373
-4.587603	Almeida	-0.2115309
-4.850844	Almeida,	-0.07475463
-5.628995	Almeja,	-0.09440475
-4.930026	Almir	-0.1709548
-5.026936	Almodóvar	-0.1501122
-5.327966	Almoço	-0.09166647
-5.628995	Aloha	-0.09586644
-5.628995	Aloisio	-0.09585726
-4.783897	Aloizio	-0.4035366
-5.628995	Aloizio,	-0.08752949
-5.628995	Alonia	-0.08752949
-5.628995	Alonso,	-0.08987509
-5.628995	Aloysio	-0.09586236
-5.026936	Aloísio	-0.09586339
-5.628995	Aloízio	-0.09586338
-5.628995	Alpargatas	-0.0958644
-5.628995	Alphaser	-0.09584399
-5.628995	Alphaville,	-0.09586134
-5.628995	Alphonse	-0.09586644
-5.628995	Alquimista»	-0.07288338
-5.628995	Alquimista»,	-0.09173445
-5.628995	Alta	-0.09586644
-5.628995	Alta,	-0.09586542
-5.628995	Altair	-0.0958593
-5.628995	Alterio	-0.09585623
-5.628995	Alternativas	-0.08752949
-5.628995	Altero	-0.09586644
-5.628995	Alteza	-0.0958144
-5.628995	Althusser	-0.07288338
-5.327966	Altino	-0.07286619
-5.628995	Altino,	-0.09257017
-5.151874	Altman	-0.07228693
-5.151874	Altman,	-0.09572662
-5.151874	Alto	-0.06574999
-5.327966	Alto,	-0.09570418
-5.327966	Aluguel	-0.2986845
-5.628995	Aluguel,	-0.09586644
-5.628995	Aluguel»	-0.07288338
-5.327966	Aluizio	-0.09582258
-5.628995	Aluno	-0.09586236
-5.151874	Alunos	-0.0708484
-5.628995	Aluísio	-0.09586644
-5.628995	Aluízio	-0.09585318
-5.628995	Alvarenga	-0.07288338
-5.628995	Alvarenga,	-0.09583277
-5.628995	Alvarez,	-0.08423617
-4.151874	Alves	-0.2051344
-4.482867	Alves,	-0.05562421
-5.628995	Alvim,	-0.09585012
-5.151874	Alvin	-0.475787
-5.628995	Alvorada	-0.0915902
-5.151874	Alvorada,	-0.09570417
-5.628995	Alvorada»,	-0.0949757
-3.492275	Além	-1.343856
-5.628995	Além,	-0.09583685
-5.628995	Alô,	-0.09583072
-5.628995	Ama!»,	-0.09586644
-5.628995	Amadeus,	-0.09507794
-5.628995	Amado	-0.08752949
-5.151874	Amado,	-0.09583992
-5.628995	Amador	-0.09586236
-5.151874	Amanda	-0.09506875
-5.628995	Amandes	-0.0955551
-5.151874	Amanhã	-0.05755669
-5.151874	Amanhã,	-0.09335708
-5.327966	Amapá	-0.3072865
-4.587603	Amaral	-0.1129922
-4.725905	Amaral,	-0.1900647
-5.628995	Amaram	-0.07288338
-5.628995	Amarante	-0.09586644
-5.026936	Amaro	-0.1597309
-5.628995	Amaro,	-0.09584399
-5.628995	Amar»	-0.08752949
-5.151874	Amato	-0.2287335
-5.151874	Amaury	-0.09282407
-4.452904	Amazonas	-0.3021542
-5.327966	Amazonas,	-0.09580728
-4.628995	Amazônia	-0.2036799
-5.327966	Amazônia,	-0.09564906
-5.628995	Amazônia»,	-0.09532323
-5.628995	Amban	-0.09583379
-5.151874	Ambas	-0.2241272
-5.628995	Ambassadors",	-0.08850516
-5.628995	Ambientais,	-0.08648802
-4.783897	Ambiente	-0.2198067
-5.151874	Ambiente,	-0.09585522
-4.452904	Ambos	-0.1152819
-5.628995	Ameaça	-0.0789275
-5.628995	Amelia	-0.0958644
-5.151874	America	-0.09585624
-5.628995	America,	-0.09284051
-4.783897	American	-0.2813039
-5.026936	Americana	-0.06843876
-5.628995	Americana,	-0.09583481
-5.628995	Americanas	-0.08850516
-5.628995	Americanas,	-0.0958644
-5.628995	Americana»,	-0.0789275
-5.327966	Americano	-0.06915341
-5.628995	Americanópolis,	-0.09563065
-5.327966	Americas	-0.3156214
-5.628995	America»	-0.07288338
-5.628995	America»,	-0.08850516
-5.628995	Ames	-0.08752949
-5.628995	Amigo	-0.0789275
-5.628995	Amigo?	-0.07020799
-5.628995	Amigos	-0.0789275
-5.628995	Amil,	-0.09532323
-5.327966	Amilcar	-0.07892647
-5.628995	Amim	-0.09514438
-4.350242	Amin	-0.2234359
-4.930026	Amin,	-0.09186425
-5.628995	Amin?	-0.07020799
-5.628995	Amina	-0.09519345
-5.628995	Amina?	-0.07020799
-5.628995	Amor	-0.07288338
-5.628995	Amorcrusp	-0.07288338
-5.628995	Amorebieta,	-0.09257017
-4.783897	Amorim	-0.03464154
-5.327966	Amorim,	-0.09576747
-5.628995	Amorin,	-0.09583379
-5.327966	Amoroso	-0.0946402
-5.327966	Amoroso,	-0.09252701
-5.628995	Amor»	-0.09233053
-5.628995	Amos	-0.09568375
-5.628995	Amos,	-0.09233053
-5.628995	Amostra	-0.08850516
-5.628995	Amostras	-0.08987509
-5.628995	Amoxil,	-0.09586644
-5.628995	Amo»,	-0.09428699
-5.628995	Ampla	-0.07288338
-5.628995	Ampliar	-0.08521926
-5.628995	Amplicilina,	-0.09586644
-5.628995	Amr	-0.09586644
-5.327966	Amsterdã,	-0.09556226
-5.628995	Amália	-0.09586644
-5.327966	Amélia	-0.09465862
-3.956898	América	-0.7005147
-4.930026	América,	-0.1475145
-5.628995	América?	-0.07020799
-4.850844	Américas	-0.05160337
-5.327966	Américas,	-0.09567049
-5.628995	Américas»:	-0.07020799
-5.151874	Américo	-0.09585828
-4.930026	An	-0.09244781
-4.350242	Ana	-0.1524747
-5.628995	Ana,	-0.09541517
-5.628995	Anad,	-0.08423617
-5.327966	Anakol	-0.08002325
-5.628995	Analisado	-0.09586542
-5.026936	Analistas	-0.0958093
-5.628995	Ananindeua	-0.09582766
-5.628995	Anatol	-0.07288338
-5.628995	Anatol,	-0.0789275
-5.327966	Anatoli	-0.07288232
-5.628995	Ancara	-0.08648802
-5.628995	Ancelotti	-0.09585828
-5.628995	Anchieta	-0.09586644
-5.327966	Anchieta,	-0.09581646
-5.628995	Anchieta-Imigrantes	-0.0957654
-5.628995	Anchieta/Imigrantes,	-0.08648802
-5.628995	Anchorage,	-0.09586542
-5.628995	Ancona	-0.09570722
-5.628995	Ancud	-0.09584399
-5.628995	Ancud,	-0.09284051
-5.628995	Andaluz	-0.09519345
-5.628995	Andante:	-0.08423617
-5.628995	Andar	-0.0789275
-5.628995	Anders	-0.09586644
-5.327966	Andersen	-0.07288232
-5.628995	Andersen,	-0.09585419
-5.026936	Anderson	-0.08752637
-5.628995	Anderson;	-0.09586644
-5.327966	Andersson	-0.09579299
-5.628995	Andersson,	-0.09586542
-5.628995	Andes	-0.07288338
-5.628995	Andima	-0.07288338
-5.628995	Andino	-0.07288338
-5.327966	Andradas,	-0.0789254
-4.424876	Andrade	-0.1676105
-4.725905	Andrade,	-0.09107359
-5.628995	Andre	-0.09585419
-5.327966	Andrea	-0.0875087
-5.151874	Andreas	-0.09251979
-5.628995	Andreato	-0.09173445
-5.327966	Andrei	-0.09586544
-5.151874	Andreotti	-0.08858093
-5.327966	Andresen,	-0.09525786
-5.628995	Andretti	-0.07288338
-5.151874	Andrew	-0.09586339
-5.628995	Andrezza,	-0.09578888
-4.248784	André	-0.1444562
-4.850844	André,	-0.09082898
-5.628995	André;	-0.09586236
-5.327966	Andréa	-0.07288018
-5.151874	Andrés	-0.2294157
-5.151874	Andy	-0.2294147
-5.628995	Ane	-0.09586644
-5.628995	Anet	-0.09586644
-5.628995	Anexado	-0.08423617
-5.327966	Anfavea	-0.09228013
-5.327966	Angarita	-0.09454399
-5.628995	Angel	-0.09586644
-4.930026	Angela	-0.09531813
-4.587603	Angeles	-0.2980197
-4.930026	Angeles,	-0.08378629
-5.628995	AngelesDetroitLos	-0.09585623
-5.628995	AngelesMário	-0.09583277
-4.930026	Angelo	-0.07287264
-5.628995	Angerami	-0.08752949
-5.628995	Anglo	-0.07288338
-5.628995	Angélica	-0.09550199
-5.628995	Angélica,	-0.09585114
-5.628995	Angélico,	-0.08521926
-5.628995	Anhangabaú	-0.07288338
-5.151874	Anhangabaú,	-0.09286209
-5.628995	Anhangabaú»,	-0.0949757
-5.628995	Anhanguera,	-0.08648802
-5.327966	Anhembi,	-0.306245
-5.628995	Anheuser-Busch,	-0.09294017
-5.628995	Anibal	-0.0957899
-5.628995	Anilza	-0.09586644
-5.151874	Animado	-0.2242202
-5.628995	Animais,	-0.0955551
-5.628995	Animais»	-0.07288338
-5.628995	Animals	-0.09252802
-5.628995	Animals,	-0.08752949
-5.628995	Anistia	-0.09584195
-5.327966	Anita	-0.09585728
-5.026936	Anjinho	-0.3138047
-5.628995	Ankito	-0.0958644
-5.151874	Ann	-0.2294208
-5.026936	Anna	-0.09586339
-5.327966	Anne	-0.09379718
-5.628995	Annette	-0.09586542
-4.850844	Ano	-0.1574328
-5.628995	Anos	-0.09585521
-5.628995	Another	-0.09586644
-5.327966	Ansarallah	-0.07159039
-5.026936	Antarctica	-0.0722018
-5.327966	Antarctica,	-0.08098318
-5.628995	Antarctica?	-0.07020799
-5.628995	Antelo	-0.07288338
-5.327966	Anteontem	-0.3143061
-4.628995	Anteontem,	-0.1465754
-3.995527	Antes	-0.6653085
-4.783897	Antes,	-0.09226263
-5.327966	Anthony	-0.09586136
-5.628995	Anthrax	-0.09586644
-5.628995	Antidrogas	-0.09584399
-5.628995	Antiga	-0.07288338
-5.628995	Antiga,	-0.09257017
-5.628995	Antigamente	-0.09586644
-5.327966	Antigamente,	-0.0832288
-5.628995	Antigo	-0.07288338
-5.026936	Antinori	-0.07200995
-5.327966	Antinori,	-0.09158919
-5.628995	Antiordem	-0.07288338
-5.628995	Antique	-0.09586644
-5.628995	Antiques	-0.09585419
-5.327966	Antitruste	-0.06061095
-5.327966	Antitruste,	-0.09439658
-5.628995	Antitruste»,	-0.0949757
-5.628995	Antlers	-0.09571335
-5.327966	Antoni	-0.09586544
-5.628995	Antonia	-0.09508305
-5.327966	Antonieta	-0.3143982
-3.880807	Antonio	-0.198311
-5.327966	Antonio,	-0.09585626
-5.327966	Antonioni	-0.06408766
-5.628995	Antony's	-0.09586542
-5.327966	Antonângelo	-0.07283068
-5.628995	Antonângelo,	-0.09581644
-5.151874	Antunes	-0.09579808
-5.151874	Antunes,	-0.09496344
-3.865567	Antônio	-0.4404082
-5.628995	Antônio,	-0.09586644
-5.628995	Antônio:	-0.09585726
-5.628995	Anula	-0.08521926
-5.151874	Análise	-0.08725166
-5.628995	Anésio	-0.09586644
-5.327966	Aníbal	-0.09519245
-3.60369	Ao	-0.32199
-4.515052	Aos	-0.1428809
-5.628995	Apa,	-0.09586644
-5.628995	Apaixonada,	-0.09565516
-5.628995	Apaixonados	-0.09397553
-5.628995	Apanhe	-0.08521926
-4.850844	Aparecida	-0.1282174
-5.327966	Aparecida,	-0.09269048
-5.628995	Aparecido	-0.09379818
-5.327966	Aparecido,	-0.08648595
-5.628995	Aparelhos	-0.09586644
-5.327966	Aparentemente	-0.0846521
-5.628995	Aparentemente,	-0.0939253
-5.628995	Apartamento	-0.09323698
-5.327966	Apas	-0.06298835
-5.628995	Apel-Habermas,	-0.0789275
-5.628995	Apelações	-0.0789275
-5.628995	Apelido:	-0.07020799
-4.482867	Apenas	-0.1132701
-5.628995	Apenas,	-0.09252802
-5.628995	Apeoesp,	-0.09586644
-5.628995	Apertaram	-0.0939253
-3.765673	Apesar	-1.133671
-5.628995	Apia,	-0.08423617
-5.628995	Apito	-0.09586644
-5.628995	Aplicações	-0.09586542
-5.628995	Apoiada	-0.09525272
-5.628995	Apoiado	-0.09503296
-5.628995	Apoio	-0.08423617
-5.628995	Apoiou	-0.08423617
-5.628995	Apoiou,	-0.09397553
-5.628995	Apolima	-0.07288338
-5.628995	Aponta,	-0.09397553
-5.628995	Aposta	-0.09284051
-5.628995	Aposto	-0.09294017
-5.628995	Apostou	-0.09514438
-5.628995	Apovian	-0.09532323
-5.628995	Appel	-0.08752949
-5.628995	Applause	-0.08752949
-5.327966	Apple	-0.0928395
-5.628995	Apple»	-0.09570416
-5.628995	Apracur	-0.08752949
-5.628995	Aprender	-0.09257017
-5.628995	Aprendi	-0.08423617
-5.628995	Apresentado	-0.09440475
-5.628995	Apresentadores,	-0.09586338
-5.628995	Apresentando	-0.08521926
-5.628995	Apresentou	-0.09294017
-5.628995	Aprofundando	-0.0939253
-5.327966	Aprovada	-0.08112678
-5.628995	Aprovar	-0.09568068
-5.628995	Aproveita	-0.09514438
-5.628995	Aproveitando	-0.0939253
-5.628995	Aproveito	-0.0915902
-5.628995	Aproxima-se	-0.09294017
-5.628995	Aprá	-0.09586644
-4.197632	Após	-0.3664141
-5.628995	Aquarela	-0.09586542
-5.628995	AquecimentoPara	-0.09586542
-5.151874	Aquela	-0.09571948
-4.930026	Aquele	-0.08429697
-5.327966	Aqueles	-0.08648491
-4.515052	Aqui	-0.1237414
-5.026936	Aqui,	-0.09243752
-5.628995	Aqui?	-0.07020799
-5.628995	Aquilani	-0.07288338
-5.628995	Aquilo	-0.0946412
-5.628995	Aquário	-0.09584603
-5.628995	Aquáticos,	-0.09173445
-5.628995	Ara	-0.09586644
-5.628995	Arab	-0.09586644
-5.628995	Arabia	-0.07288338
-5.628995	Arabia,	-0.09584603
-5.327966	Aracaju	-0.0727489
-5.628995	Aracruz,	-0.09323698
-4.549814	Arafat	-0.2160652
-4.930026	Arafat,	-0.1530797
-5.327966	Aragão	-0.09528238
-5.628995	Aragão,	-0.09583481
-5.628995	Aragón,	-0.09586542
-5.327966	Aranha	-0.2926404
-5.151874	Aranha,	-0.07545791
-5.628995	Aranha»,	-0.0915902
-5.151874	Arantes	-0.0651086
-5.628995	Arantes,	-0.09173445
-5.628995	Arantxa	-0.0958644
-5.628995	Arap,	-0.09585114
-5.327966	Arapuã,	-0.09393455
-5.026936	Araraquara	-0.1593944
-5.628995	Araraquara,	-0.09509839
-5.327966	Araras	-0.07288232
-5.628995	Arasaki,	-0.09584195
-5.628995	Arawak,	-0.09531301
-5.628995	Araçatuba	-0.07288338
-4.930026	Araújo	-0.2385622
-5.151874	Araújo,	-0.09534673
-5.628995	Araújo."	-0.07020799
-5.628995	Arbitragem	-0.07288338
-5.628995	Arbovírus	-0.08987509
-5.628995	Arbus	-0.07288338
-5.628995	Arce	-0.07288338
-5.628995	Ardente»	-0.09233053
-5.628995	Are	-0.09355409
-5.628995	Areia	-0.09542947
-5.628995	Arena,	-0.09173445
-5.151874	Arenas	-0.07216302
-5.628995	Arenas,	-0.09586542
-5.628995	Arendt	-0.08752949
-5.628995	Arezzo	-0.09284051
-5.628995	Argel	-0.09284051
-4.214022	Argentina	-0.2901768
-4.350242	Argentina,	-0.152239
-5.628995	Argentina:	-0.09569906
-5.628995	Argentina;	-0.09294017
-5.628995	Argentinos	-0.08752949
-5.628995	Argumenta-se	-0.08648802
-5.628995	Argumentou	-0.08648802
-5.628995	Argun,	-0.08648802
-5.151874	Argélia	-0.452806
-5.327966	Argélia,	-0.09510148
-5.628995	Ari	-0.09585828
-5.026936	Arida	-0.0635955
-5.628995	Arida,	-0.09585419
-5.628995	Arilson	-0.09586542
-5.628995	Ariosto	-0.0954928
-5.628995	Ariosto,	-0.09514949
-5.628995	Arisco	-0.07288338
-5.628995	Arista	-0.09586644
-5.151874	Aristide	-0.2062708
-5.151874	Aristide,	-0.08745563
-4.482867	Aristides	-0.4576869
-5.628995	Aristizábal	-0.09569906
-5.628995	Aristodemo	-0.09586542
-5.628995	Aristófanes	-0.07288338
-5.151874	Aristóteles	-0.07932416
-5.628995	Aritomi	-0.07288338
-5.628995	Arizona	-0.07288338
-5.628995	Arizona,	-0.09397553
-5.151874	Arkansas	-0.08671007
-5.327966	Arkansas,	-0.08521405
-5.628995	Arlete	-0.09586644
-5.628995	Arlette	-0.09586644
-5.628995	Arlindo	-0.0789275
-5.628995	Arlington	-0.09586542
-4.424876	Armadas	-0.08558351
-5.151874	Armadas,	-0.08825392
-5.628995	Armadas»	-0.07288338
-5.327966	Armadilha,	-0.09586136
-4.930026	Armando	-0.09584809
-5.628995	Armenia,	-0.09586644
-5.628995	Armindo	-0.09586644
-5.628995	Armstrong	-0.07288338
-5.628995	Armários	-0.08752949
-4.628995	Arnaldo	-0.123436
-5.026936	Arnold	-0.3455805
-5.628995	Arnolfini	-0.08752949
-5.628995	Aron	-0.07288338
-5.628995	Arone,	-0.09586644
-5.327966	Aronson	-0.0958185
-5.628995	Arp	-0.08752949
-5.628995	Arp,	-0.08752949
-5.628995	Arquidiocese	-0.0789275
-5.628995	Arquitetura	-0.09586644
-5.628995	Arquitetura,	-0.09585828
-5.327966	Arquivo	-0.08750454
-4.674753	Arraes	-0.1049982
-5.026936	Arraes,	-0.1822473
-5.628995	Arraes?	-0.07020799
-5.327966	Arranjos	-0.2986845
-5.628995	Arrelia	-0.0946412
-5.628995	Arrested	-0.09586644
-5.628995	Arrieta,	-0.09585726
-5.026936	Arrigo	-0.3455744
-5.628995	Arriortuá	-0.09583481
-5.628995	Arrisque	-0.07288338
-5.628995	Arrombada	-0.08423617
-5.628995	Arrows	-0.07288338
-5.628995	Arroyo	-0.07288338
-5.628995	Arruda	-0.09586032
-5.628995	Arruda,	-0.0958644
-5.628995	Arselino	-0.09586644
-5.628995	Arsenal	-0.09586644
-4.267268	Art	-1.357227
-5.628995	Artaud,	-0.09586032
-5.628995	Artcad	-0.09581644
-4.725905	Arte	-0.1729263
-5.628995	Artefatos	-0.0789275
-5.628995	Artepensamento,	-0.09585216
-4.725905	Artes	-0.1263196
-5.628995	Artes,	-0.09567047
-5.327966	Artex,	-0.08421942
-5.628995	Arte»	-0.08752949
-5.628995	Arte»,	-0.0789275
-4.587603	Arthur	-0.2100468
-5.628995	Artigas	-0.07288338
-5.628995	Artista:	-0.0958644
-5.026936	Artistas	-0.09157269
-5.628995	Artistas,	-0.09323698
-5.151874	Arts	-0.07204337
-5.151874	Artur	-0.08982854
-5.628995	Arturo	-0.09586644
-5.628995	Artística,	-0.08648802
-5.628995	Aruba	-0.09514438
-5.628995	Aruba?	-0.07020799
-5.628995	Ary	-0.09586542
-4.930026	Arábia	-0.4214161
-3.064329	As	-0.2611493
-5.628995	Asa	-0.09585828
-5.628995	Asad,	-0.09581745
-5.327966	Ascari	-0.09461257
-5.628995	Ascher	-0.09532323
-5.628995	Ascher,	-0.08648802
-5.628995	Asepeyo,	-0.09565516
-5.628995	Asfaltos	-0.0958644
-5.628995	Asfalto»	-0.07288338
-5.628995	Ashcroft	-0.07288338
-4.850844	Asia	-0.2203344
-5.327966	Asimov	-0.09527216
-5.628995	Asimov,	-0.09568681
-5.628995	Asis	-0.07288338
-5.026936	Asiático	-0.06246299
-5.628995	Asiático,	-0.09575724
-5.628995	Asociados	-0.09580113
-5.151874	Aspen	-0.08452012
-5.327966	Aspen,	-0.09546728
-5.628995	Aspirantes	-0.0789275
-5.628995	Aspirina	-0.08752949
-5.628995	Asprilla	-0.08752949
-5.151874	Aspásia	-0.07286941
-5.628995	Assaf	-0.09585623
-5.628995	Assassinato	-0.0789275
-5.628995	Assemany	-0.09233053
-4.587603	Assembléia	-0.2363982
-5.628995	Assessor	-0.09571641
-4.930026	Assessores	-0.1400444
-5.151874	Assessoria	-0.2081857
-5.628995	Asset	-0.09586644
-4.286573	Assim	-0.2823924
-4.110482	Assim,	-0.2669101
-5.628995	Assinar	-0.09257017
-5.628995	Assinaram	-0.08521926
-4.725905	Assis	-0.1089817
-4.674753	Assis,	-0.1043116
-5.628995	Assista	-0.09428699
-5.628995	Assistida	-0.09586644
-5.151874	Assistência	-0.2210671
-5.628995	Assobrav,	-0.09568068
-5.628995	Associa-se,	-0.09584195
-5.151874	Associados	-0.08641398
-5.151874	Associados,	-0.08117004
-5.628995	Association	-0.07288338
-5.628995	Association,	-0.09585216
-4.231055	Associação	-0.3127663
-5.628995	Associaçãos	-0.09379818
-5.327966	Associações	-0.09586544
-5.628995	Associtrus,	-0.09586338
-5.327966	Assumpção	-0.09585932
-5.628995	Assumpção,	-0.0927069
-4.783897	Assuntos	-0.2076306
-4.930026	Assunção	-0.1440095
-5.628995	Assunção,	-0.08521926
-5.628995	Astaire	-0.09586644
-5.628995	Astral,	-0.09257017
-5.628995	Astral:	-0.09579909
-5.628995	Astrojildo	-0.09585318
-5.628995	Asunción,	-0.08752949
-5.628995	Asylum	-0.08752949
-5.628995	Atacadas!	-0.07020799
-5.628995	Atacante	-0.08987509
-5.628995	Atalaia,	-0.09582562
-5.628995	Ataque:	-0.09586134
-5.628995	Atayde	-0.09586542
-5.327966	Ateliê	-0.05500358
-5.628995	Atenas,	-0.08521926
-5.628995	Atendimento	-0.09586644
-5.628995	Atendimento,	-0.08752949
-5.628995	Atenção	-0.08752949
-5.628995	Atenção,	-0.09583889
-5.628995	Atenção:	-0.0953549
-5.628995	Aterrissa	-0.09580623
-5.628995	Athayde	-0.09583583
-5.628995	Athens,	-0.09440475
-5.628995	Athletic	-0.07288338
-5.327966	Atibaia,	-0.09564599
-5.628995	Atici	-0.0958644
-5.628995	Atik	-0.07288338
-5.628995	Atik,	-0.09547544
-5.327966	Atingiu	-0.09154591
-5.628995	Atiraram	-0.09223381
-5.628995	Atire,	-0.09257017
-5.327966	Atitude	-0.09371413
-5.628995	Ativistas	-0.0789275
-5.628995	Atkinson	-0.09586338
-5.151874	Atlanta	-0.06829852
-5.628995	Atlantis	-0.07288338
-5.628995	Atlas	-0.09586542
-5.628995	Atlas»,	-0.09586032
-5.628995	Atleta	-0.09428699
-5.628995	Atletico	-0.09585623
-5.628995	Atletismo,	-0.08521926
-5.327966	Atlântica	-0.06298835
-5.327966	Atlântica,	-0.08407789
-4.628995	Atlântico	-0.2343255
-5.327966	Atlântico,	-0.09514339
-5.151874	Atlético	-0.2258684
-5.628995	Atlético-MG	-0.09583787
-5.628995	Atlético-MG,	-0.09586644
-5.628995	Atlético?	-0.07020799
-5.628995	Ato	-0.09586644
-5.628995	Atobá,	-0.08850516
-5.327966	Ator	-0.08752847
-5.151874	Atores	-0.09586237
-5.628995	Atracado	-0.09173445
-5.628995	Atrasado	-0.0915902
-5.628995	Atrasava»	-0.08648802
-5.026936	Através	-0.1688076
-5.628995	Atribui	-0.0955796
-5.327966	Atrás	-0.07269508
-5.628995	Attaway	-0.09586644
-5.628995	Attractions	-0.07288338
-5.628995	Atualize	-0.0927069
-5.628995	Atualmente	-0.08521926
-4.482867	Atualmente,	-0.1169128
-5.628995	Atuamos	-0.09572866
-5.628995	Atuando	-0.09173445
-3.783897	Até	-0.430531
-5.628995	Aubrey	-0.09586644
-5.327966	Auditores	-0.3072865
-5.628995	Augusta	-0.09519345
-5.628995	Augusta?	-0.07020799
-4.398547	Augusto	-0.1355792
-5.151874	Augusto,	-0.09574602
-5.628995	Aumento	-0.09284051
-5.628995	Aurino	-0.09548667
-5.327966	Aurélio	-0.09585218
-5.628995	Aurélio,	-0.09586644
-5.628995	Aurélio:	-0.07020799
-5.628995	Auster	-0.09519345
-5.628995	Auster,	-0.0957256
-5.628995	Austin	-0.09586644
-5.628995	Austria	-0.09173445
-5.628995	Austro-Húngaro	-0.0946412
-5.026936	Austrália	-0.1797995
-5.628995	Austrália,	-0.08521926
-5.628995	Austríaca	-0.0789275
-5.628995	Austríaco?	-0.07020799
-5.628995	Auto	-0.09586644
-5.628995	Autobiography»,	-0.09284051
-5.628995	Autodenominado	-0.09585828
-5.628995	Autodidata,	-0.08521926
-5.151874	Autolatina	-0.08330967
-5.628995	Automobilismo	-0.09531914
-5.628995	Automotores,	-0.09440475
-5.628995	Automóvel	-0.09585521
-5.026936	Autor	-0.1681085
-5.628995	Autor:	-0.09586032
-5.628995	Autora	-0.09585623
-5.628995	Autorais	-0.09586644
-5.327966	Autoridade	-0.0958634
-4.783897	Autoridades	-0.1421385
-5.628995	Autorizado	-0.09397553
-5.327966	Auxiliares	-0.2986845
-5.628995	Avaliamos	-0.08521926
-5.628995	Avaliase	-0.08648802
-5.628995	Avaliações,	-0.08648802
-5.628995	Avallone	-0.0958644
-5.628995	Avant	-0.09586644
-5.628995	Avançando	-0.09223381
-5.628995	Avanço	-0.09542947
-5.628995	Ave	-0.09586644
-5.327966	Avedon	-0.07217273
-5.628995	Avelar,	-0.08850516
-5.151874	Avenida	-0.08739528
-5.628995	Aventuras	-0.0789275
-5.628995	Aventura»,	-0.09550199
-5.628995	Avenue	-0.09586644
-5.628995	Avessa	-0.09428699
-5.628995	Avesso	-0.08423617
-5.628995	Avisado	-0.08850516
-5.628995	Avisou	-0.08648802
-5.628995	Avião!	-0.07020799
-5.628995	Avon	-0.07288338
-5.628995	Award	-0.09233053
-5.628995	Awards,	-0.09585828
-4.930026	Axel,	-0.09126031
-5.628995	Aydar	-0.09408723
-4.248784	Ayrton	-0.4809187
-5.628995	Ayyad	-0.08752949
-5.151874	Azeredo	-0.06678124
-5.327966	Azeredo,	-0.08647448
-5.151874	Azevedo	-0.06408654
-5.151874	Azevedo,	-0.0864557
-5.628995	Azevedo/José	-0.09584603
-5.628995	Aziz	-0.09586644
-5.628995	Azkargorta,	-0.08521926
-5.628995	Azmi,	-0.08648802
-5.628995	Aznar,	-0.09585419
-5.628995	Azul	-0.09586644
-5.628995	Azulejos	-0.0789275
-5.628995	Azul»	-0.07288338
-5.628995	Azul»,	-0.09586542
-5.628995	AÍ	-0.09582358
-5.628995	Açores	-0.07288338
-5.327966	Ação	-0.09584708
-5.628995	Açúcar	-0.09585623
-5.327966	Açúcar,	-0.09369156
-5.327966	Aérea	-0.06408766
-5.628995	Aérea,	-0.08423617
-5.628995	Aéreo	-0.09233053
-4.424876	Aí	-0.1124065
-4.725905	Aí,	-0.1196762
-5.628995	Aída	-0.09586644
-5.327966	Aílton	-0.09580115
-5.628995	Aílton,	-0.09586542

\2-grams:

-3.340181	A AEB
-4.057466	A AGF
-4.057466	A ARTE
-4.057466	A Abrapp
-4.057466	A Aids
-4.057466	A Alciberg,
-2.754076	A Alemanha
-4.057466	A Alpargatas
-4.057466	A American
-4.057466	A América
-4.057466	A Anfavea
-3.340181	A Argentina
-3.340181	A Argentina,
-4.057466	A Assessoria
-4.057466	A Asset
-3.340181	A Associação
-4.057466	A BMW,
-4.057466	A Babá
-4.057466	A Banda
-4.057466	A Bandeirantes
-4.057466	A Beis
-4.057466	A Beltech
-3.340181	A Benetton
-3.340181	A Bienal
-3.053938	A Bolsa
-4.057466	A Borland
-3.340181	A Brahma
-4.057466	A Brasoftware
-4.057466	A Brasília
-4.057466	A Bulgária
-4.057466	A Bósnia
-4.057466	A CASSAçãO
-4.057466	A CAVALO
-4.057466	A CBF
-4.057466	A CCE
-4.057466	A CNBB
-2.695182	A CPI
-4.057466	A CRISE
-3.340181	A CUT
-3.340181	A CVM
-4.057466	A Caminhando
-4.057466	A Campanha
-4.057466	A Caravan
-4.057466	A Caraíba
-4.057466	A Cartilha
-4.057466	A Centrográfica
-4.057466	A Cerimônia
-4.057466	A Changin»,
-3.340181	A China,
-4.057466	A Chinatown
-4.057466	A Cia.
-3.340181	A Cidade
-4.057466	A Citrocoop
-4.057466	A Citroen
-4.057466	A Coca-Cola
-4.057466	A Coluna
-2.876478	A Comissão
-3.340181	A Companhia
-4.057466	A CompuSource
-3.340181	A Confederação
-3.053938	A Constituição
-3.340181	A Coordenadoria
-4.057466	A Copa
-4.057466	A Corte
-4.057466	A Croácia
-4.057466	A Cuiabá-Santarém
-3.340181	A Cultura
-2.876478	A Câmara
-4.057466	A DEMANDA
-4.057466	A Daihatsu,
-3.340181	A Defesa
-3.340181	A Delegacia
-4.057466	A DowElanco,
-4.057466	A ESPN
-4.057466	A Edisa
-4.057466	A Eletro
-4.057466	A Emater
-4.057466	A Embratel
-4.057466	A Embratel,
-4.057466	A Empresa
-4.057466	A Enron
-4.057466	A Epson
-4.057466	A Era
-4.057466	A Escola
-4.057466	A Espanha
-4.057466	A Eufrasio
-3.340181	A Executiva
-4.057466	A FPB
-4.057466	A Família
-3.340181	A Fazenda
-2.876478	A Federação
-4.057466	A Fenasoft
-4.057466	A Ferrari
-4.057466	A Ferroviária
-3.340181	A Fiat
-2.876478	A Fifa
-4.057466	A Filosofia
-4.057466	A Fintec
-4.057466	A Fipe
-4.057466	A Flex-Foot
-1.907143	A Folha
-4.057466	A Ford
-4.057466	A França
-4.057466	A Frente
-4.057466	A Fuji
-4.057466	A Fundação
-3.340181	A Fuvest
-3.340181	A G.
-4.057466	A GRÁFICA
-4.057466	A Globo
-4.057466	A Globosat/Sportv
-4.057466	A Globotec
-4.057466	A Golden
-4.057466	A Gringolândia
-3.340181	A Grécia
-4.057466	A Guarda
-4.057466	A Guerra
-4.057466	A Hebraica
-4.057466	A Hoechst
-4.057466	A IBM
-3.340181	A IRLF
-4.057466	A Iberia,
-3.053938	A Igreja
-4.057466	A Ilay
-4.057466	A Importadora
-4.057466	A Incomar
-4.057466	A Inglaterra
-4.057466	A Intel
-3.340181	A Internet
-4.057466	A Interpoint,
-4.057466	A Interpublic,
-3.340181	A Irlanda
-3.340181	A Itália
-4.057466	A J&R
-2.45121	A Justiça
-4.057466	A Juve
-4.057466	A Juventus
-4.057466	A Kaiser,
-4.057466	A L&PM,
-4.057466	A Lazco
-3.340181	A Lei
-4.057466	A Levi's
-3.340181	A Liga
-4.057466	A Limasa
-4.057466	A Livraria
-4.057466	A Lua
-4.057466	A Lulu
-4.057466	A MENINADA,
-3.340181	A MIT
-2.547405	A MP
-4.057466	A MP,
-3.340181	A MTV
-4.057466	A Manah
-4.057466	A Manchete
-4.057466	A Marshall
-4.057466	A Melrose
-4.057466	A Mercedes-Benz
-4.057466	A Mesbla
-4.057466	A Mocotex
-4.057466	A Mondadori,
-4.057466	A NAACP
-4.057466	A NBA
-4.057466	A Nike
-4.057466	A OLP
-3.053938	A ONU
-4.057466	A Odebrecht
-4.057466	A Odisséia
-4.057466	A Olivetti
-4.057466	A Orniex
-4.057466	A Otker
-3.053938	A PF
-3.340181	A PM
-4.057466	A Pacific
-4.057466	A Parmalat
-4.057466	A Penske,
-4.057466	A Philco
-4.057466	A Phillips
-4.057466	A Pinacoteca
-2.275119	A Polícia
-4.057466	A Ponte
-4.057466	A Portuguesa
-2.3543	A Prefeitura
-4.057466	A Preçolândia,
-4.057466	A Primary
-3.053938	A Procuradoria
-4.057466	A Qualidade
-3.340181	A REFERÊNCIA
-4.057466	A Raça
-2.754076	A Receita
-4.057466	A Recopa
-2.876478	A Rede
-4.057466	A Reebock
-4.057466	A Regina
-4.057466	A Reintegra,
-4.057466	A República
-4.057466	A Resilon
-4.057466	A Reuters
-4.057466	A Rodovia
-3.340181	A Romênia
-2.695182	A Rússia
-4.057466	A Rússia,
-4.057466	A SDE
-4.057466	A SELEÇÃO,
-4.057466	A Schlumberger
-2.275119	A Secretaria
-4.057466	A Segunda
-4.057466	A Semab
-4.057466	A Semco-Johnson
-4.057466	A Simtek,
-4.057466	A Sinfonia
-4.057466	A Skool
-4.057466	A Sociedade
-3.340181	A Sony
-4.057466	A Strata
-4.057466	A Subaru
-4.057466	A Subcomissão
-3.340181	A Sunab
-4.057466	A Superintendência
-4.057466	A Suécia
-3.340181	A TR
-4.057466	A TV
-3.053938	A TVA
-4.057466	A TVs
-4.057466	A Tec
-4.057466	A Teixeira
-4.057466	A Tejofran
-4.057466	A Tia
-4.057466	A Toledo
-4.057466	A Transbrasil
-4.057466	A UE
-3.340181	A URV
-4.057466	A USP
-4.057466	A Ufir
-4.057466	A UnB
-4.057466	A Unicamp
-4.057466	A Unicentro
-4.057466	A Unita
-3.340181	A United
-4.057466	A Universidade
-3.053938	A União
-4.057466	A União,
-4.057466	A VW
-4.057466	A Vale
-4.057466	A Varig
-3.340181	A Venezuela
-4.057466	A Viacom
-4.057466	A Vicunha
-3.340181	A Vigilância
-4.057466	A Villejack
-4.057466	A Volkswagen
-4.057466	A W/Brasil
-4.057466	A Warner
-4.057466	A Williams,
-3.340181	A a
-3.053938	A abertura
-4.057466	A abordagem
-4.057466	A abundância
-4.057466	A aceleração
-3.340181	A acusação
-4.057466	A administradora
-4.057466	A administração
-4.057466	A advertência
-4.057466	A advogada
-4.057466	A aeronave
-2.695182	A afirmação
-4.057466	A agente
-4.057466	A agilidade
-4.057466	A agitação
-3.340181	A agricultura
-3.053938	A agência
-4.057466	A ajuda
-2.876478	A ala
-4.057466	A aliança
-4.057466	A alta
-4.057466	A alteração
-4.057466	A alternativa
-4.057466	A altura
-4.057466	A ameaça
-4.057466	A amizade
-4.057466	A amostra
-4.057466	A amostragem
-4.057466	A amplitude
-4.057466	A ansiedade
-4.057466	A antecipação
-4.057466	A antiga
-4.057466	A antropóloga
-4.057466	A anágua
-3.053938	A análise
-3.340181	A aplicação
-4.057466	A aposentadoria
-4.057466	A aposta
-4.057466	A apresentadora
-3.340181	A apresentação
-2.876478	A aprovação
-4.057466	A arquidiocese
-4.057466	A arquitetura
-3.340181	A arte
-4.057466	A artista
-3.340181	A assembléia
-2.240357	A assessoria
-4.057466	A assistente
-4.057466	A assistência
-4.057466	A ata
-3.340181	A atacante
-4.057466	A atacante,
-3.053938	A atenção
-3.053938	A atitude
-4.057466	A atividade
-4.057466	A atmosfera
-2.754076	A atriz
-4.057466	A atriz,
-4.057466	A atuação
-4.057466	A audiência
-4.057466	A ausência
-4.057466	A auteridades
-4.057466	A auto-mutilação
-4.057466	A autobiografia
-4.057466	A avalancha
-2.754076	A avaliação
-4.057466	A avenida
-2.695182	A ação
-4.057466	A bagagem,
-4.057466	A banda
-3.053938	A base
-4.057466	A batalha
-3.340181	A bebida
-3.340181	A bela
-4.057466	A biblioteca
-4.057466	A bibliotecária
-4.057466	A biografia
-2.754076	A boa
-2.695182	A bola
-4.057466	A bolinha
-4.057466	A bolsa
-4.057466	A briga
-4.057466	A burguesia
-4.057466	A busca
-2.547405	A cada
-3.340181	A caderneta
-4.057466	A caixa
-4.057466	A caixa-preta
-4.057466	A calibragem
-4.057466	A cama
-2.45121	A campanha
-3.340181	A candidatura
-2.876478	A cantora
-4.057466	A canção
-4.057466	A capa
-4.057466	A capacidade
-4.057466	A capacitação
-4.057466	A capital
-4.057466	A carga
-4.057466	A carnavalesca
-4.057466	A carne
-4.057466	A carranca
-4.057466	A carreata
-3.053938	A carta
-2.876478	A casa
-3.340181	A categoria
-3.053938	A causa
-4.057466	A cegueira
-3.340181	A cena
-4.057466	A centralização
-3.053938	A cerimônia
-3.053938	A certa
-4.057466	A charge,
-4.057466	A chave
-4.057466	A chefe
-2.754076	A chegada
-4.057466	A chegada,
-3.340181	A chuva
-2.695182	A cidade
-4.057466	A cifra
-3.340181	A cinco
-4.057466	A cirurgia
-4.057466	A ciência
-4.057466	A classificação
-4.057466	A clínica
-4.057466	A cocaína
-3.340181	A coisa
-4.057466	A coletânea
-4.057466	A coleção
-3.340181	A coligação
-3.053938	A começar
-2.876478	A comissão
-4.057466	A companhia
-3.340181	A comparação
-4.057466	A compositora
-3.340181	A comunicação
-4.057466	A comédia
-4.057466	A concentração
-3.053938	A concepção
-4.057466	A conciliação
-2.754076	A conclusão
-4.057466	A conclusão,
-3.340181	A concorrência
-4.057466	A conferencista
-4.057466	A conferir
-4.057466	A confusão
-4.057466	A conjuntura
-4.057466	A consequência
-4.057466	A construtora
-4.057466	A construção
-4.057466	A conta
-4.057466	A contabilidade
-4.057466	A contracultura,
-3.053938	A contribuição
-4.057466	A conversa
-3.053938	A conversão
-4.057466	A convincente
-3.340181	A convite
-4.057466	A convivência
-4.057466	A convocação
-3.053938	A coordenação
-3.340181	A coreografia
-4.057466	A correspondência
-3.340181	A corretora
-3.340181	A correção
-3.340181	A corrida
-3.340181	A corrupção
-4.057466	A costa
-4.057466	A credibilidade
-2.400058	A crise
-3.340181	A crítica
-4.057466	A culpa
-4.057466	A culpa,
-3.340181	A cultura
-4.057466	A curiosidade
-4.057466	A curva
-4.057466	A câmara
-3.340181	A câmera
-4.057466	A cânula
-4.057466	A célebre
-2.547405	A cúpula
-4.057466	A data-base
-3.340181	A de
-2.123852	A decisão
-4.057466	A decisão,
-2.695182	A declaração
-4.057466	A decoração
-4.057466	A decorrência
-4.057466	A decretação
-3.340181	A defasagem
-2.695182	A defesa
-3.340181	A definição
-4.057466	A delegada
-3.340181	A delegação
-4.057466	A demissão
-2.876478	A democracia
-2.876478	A denúncia
-4.057466	A depender
-4.057466	A depressão
-4.057466	A derrota
-4.057466	A desconstitucionalização
-4.057466	A descontinuidade
-4.057466	A desgraça
-4.057466	A desindexação
-4.057466	A desocupação
-3.340181	A devolução
-4.057466	A diarréia,
-2.312908	A diferença
-4.057466	A diferença?
-4.057466	A dificuldade
-4.057466	A dimensão
-4.057466	A diminuição
-4.057466	A dinastia
-4.057466	A dinâmica,
-3.340181	A direita
-4.057466	A direita,
-4.057466	A diretora
-2.3543	A direção
-4.057466	A disciplina
-4.057466	A discriminação
-3.340181	A discussão
-4.057466	A discussão,
-4.057466	A disparidade
-4.057466	A disputa
-4.057466	A distribuição
-4.057466	A distância
-4.057466	A diversificação
-4.057466	A do
-4.057466	A documentação
-4.057466	A doença
-4.057466	A dona
-3.053938	A dor
-3.340181	A droga
-4.057466	A dublagem
-3.053938	A dupla
-4.057466	A dura
-4.057466	A duras
-3.053938	A dúvida
-2.876478	A economia
-4.057466	A economista
-3.340181	A editora
-2.876478	A edição
-4.057466	A efedrina
-4.057466	A eficácia
-4.057466	A elegia
-2.876478	A eleição
-4.057466	A elementar
-4.057466	A elevada
-3.053938	A elevação
-4.057466	A eliminação
-4.057466	A em
-4.057466	A embaixada
-4.057466	A embarcação
-4.057466	A emenda
-3.340181	A emissora
-3.340181	A emoção
-4.057466	A emoção,
-4.057466	A empolgação
-4.057466	A empregada
-4.057466	A empregada,
-4.057466	A empreiteira
-2.099028	A empresa
-4.057466	A encomenda
-4.057466	A energia
-4.057466	A enorme
-2.695182	A entidade
-2.695182	A entrada
-4.057466	A entrega
-4.057466	A entrevista
-1.891903	A equipe
-4.057466	A equipe,
-4.057466	A era
-4.057466	A erradicação
-4.057466	A escalação
-3.053938	A escola
-4.057466	A escola-padrão
-2.695182	A escolha
-4.057466	A esquerda
-4.057466	A esquerda,
-3.340181	A essa
-4.057466	A esse
-4.057466	A essência
-4.057466	A estabilização
-4.057466	A estagnação
-4.057466	A estatal
-4.057466	A estiagem
-4.057466	A estiagem,
-4.057466	A estimativa
-4.057466	A estranhar
-2.695182	A estratégia
-4.057466	A estrela
-3.340181	A estrutura
-4.057466	A estréia
-4.057466	A estudante
-4.057466	A estética
-3.340181	A etapa
-4.057466	A euforia
-4.057466	A evolução
-3.053938	A ex-prefeita
-4.057466	A ex-primeira-ministra
-4.057466	A ex-recordista
-4.057466	A exclusão
-4.057466	A excursão
-3.340181	A exemplo
-4.057466	A exibição
-3.340181	A exigência
-4.057466	A existência
-3.340181	A expansão
-2.876478	A expectativa
-4.057466	A expedição
-3.340181	A experiência
-3.340181	A explicação
-4.057466	A explosão,
-2.876478	A exposição
-4.057466	A expressão
-4.057466	A eísfora
-4.057466	A fabricante
-4.057466	A faceta
-4.057466	A facilidade
-3.340181	A faixa
-2.876478	A falha
-2.547405	A falta
-4.057466	A falência
-4.057466	A fama
-4.057466	A famíla
-2.400058	A família
-4.057466	A fascinação
-4.057466	A favor
-4.057466	A febre
-3.340181	A federação
-3.340181	A feira
-4.057466	A ferrovia
-2.754076	A festa
-4.057466	A fila
-3.340181	A filha
-4.057466	A filosofia
-4.057466	A final
-4.057466	A firma
-4.057466	A fiscalização
-4.057466	A fita
-3.053938	A fixação
-4.057466	A flexibilização
-3.340181	A forma
-4.057466	A formulação
-4.057466	A forte
-3.340181	A força
-4.057466	A foto
-4.057466	A fragilidade
-4.057466	A fragmentação
-2.876478	A frase
-4.057466	A frequência
-4.057466	A fronteira
-4.057466	A frota
-4.057466	A função
-4.057466	A futura
-4.057466	A fábrica
-3.340181	A fórmula
-2.876478	A garantia
-4.057466	A garota
-4.057466	A gasolina
-4.057466	A geada
-4.057466	A generalização
-2.400058	A gente
-4.057466	A gerente
-4.057466	A ginecomastia
-4.057466	A governadora
-2.400058	A grande
-4.057466	A grapa
-4.057466	A grata
-4.057466	A gravadora
-4.057466	A gravação
-2.754076	A greve
-4.057466	A guarda
-3.053938	A guerra
-3.340181	A harmonização
-4.057466	A hidroginástica
-4.057466	A hipótese
-2.45121	A história
-4.057466	A holding
-4.057466	A horas
-4.057466	A ida
-4.057466	A identidade
-4.057466	A identificação
-2.150181	A idéia
-4.057466	A ilha
-4.057466	A ilusão
-2.876478	A imagem
-4.057466	A imensa
-4.057466	A implantação
-4.057466	A importância
-4.057466	A impossibilidade
-2.754076	A imprensa
-3.340181	A imprensa,
-3.340181	A impressão
-4.057466	A inadimplência
-3.053938	A inauguração
-4.057466	A incorporadora
-4.057466	A incursão
-4.057466	A indignação
-3.053938	A indústria
-4.057466	A indústria,
-4.057466	A ineficiência
-2.695182	A inflação
-4.057466	A informalidade,
-2.400058	A informação
-4.057466	A informação,
-2.695182	A iniciativa
-4.057466	A inocência
-4.057466	A inovação
-4.057466	A inseminação
-3.053938	A instalação
-4.057466	A instituição
-4.057466	A insurreição
-4.057466	A intelectualidade
-2.754076	A intenção
-3.340181	A intenção,
-3.053938	A intervenção
-4.057466	A invasão
-4.057466	A investigação
-3.340181	A ironia
-4.057466	A isenção
-4.057466	A japonesa
-4.057466	A jogadora
-4.057466	A jovem
-4.057466	A julgar
-4.057466	A junção
-3.340181	A juíza
-4.057466	A lança
-3.053938	A legislação
-2.275119	A lei
-4.057466	A lei,
-3.340181	A leitora
-3.340181	A leitura
-3.340181	A liberdade
-4.057466	A liderança
-3.340181	A ligação
-3.340181	A liminar
-4.057466	A liminar,
-3.340181	A linha
-4.057466	A liquidação
-4.057466	A lista
-4.057466	A lista,
-3.340181	A lição
-3.340181	A loja
-4.057466	A loteria
-4.057466	A luz
-3.340181	A lógica
-2.123852	A maior
-1.956361	A maioria
-3.053938	A mais
-4.057466	A manada
-3.340181	A mania
-3.340181	A manifestação
-3.053938	A manutenção
-4.057466	A marca
-4.057466	A margem
-4.057466	A massa
-4.057466	A mecânica
-4.057466	A mediação
-2.695182	A medida
-4.057466	A medida,
-3.053938	A melhor
-4.057466	A menina
-4.057466	A menos
-4.057466	A mensagem,
-4.057466	A mente
-4.057466	A mercadoria
-2.547405	A mesma
-4.057466	A meta
-4.057466	A meteorologia
-4.057466	A meu
-4.057466	A mineira
-3.053938	A minha
-4.057466	A mise-en-scène
-4.057466	A missão
-4.057466	A moda
-3.340181	A modelo
-4.057466	A modificação
-4.057466	A moeda
-4.057466	A montagem,
-3.340181	A moral
-3.053938	A morte
-4.057466	A mostra
-3.340181	A moça
-4.057466	A moçada
-2.547405	A mudança
-3.340181	A mulher
-4.057466	A multidão
-4.057466	A multimídia
-4.057466	A museologia
-3.053938	A má
-4.057466	A máquina
-4.057466	A máquina,
-2.876478	A mãe
-3.340181	A média
-4.057466	A médica
-3.340181	A mídia
-4.057466	A múmia
-3.340181	A música
-4.057466	A narrativa
-4.057466	A nata
-4.057466	A natureza
-4.057466	A necessidade
-4.057466	A negociação
-4.057466	A noite
-4.057466	A noite,
-3.340181	A norte-americana
-2.876478	A nota
-4.057466	A notabilidade
-3.340181	A notificação
-2.754076	A notícia
-2.876478	A nova
-4.057466	A nova,
-4.057466	A novela
-2.695182	A novidade
-4.057466	A noção
-4.057466	A nutricionista
-3.053938	A não
-4.057466	A não-ratificação
-4.057466	A nós
-2.45121	A obra
-4.057466	A obra,
-4.057466	A obrigatoriedade
-4.057466	A observação
-4.057466	A odisséia
-4.057466	A ofensiva
-4.057466	A oito
-3.053938	A ombudsman
-2.240357	A operação
-4.057466	A operação,
-3.340181	A opinião
-4.057466	A oportunidade
-3.340181	A oposição
-2.876478	A opção
-4.057466	A ordem
-3.340181	A organização
-4.057466	A origem
-4.057466	A orquestra
-2.400058	A outra
-4.057466	A paisagem
-3.053938	A palavra
-4.057466	A panificadora
-4.057466	A parada
-4.057466	A paralela
-3.053938	A parte
-4.057466	A parte,
-3.053938	A participação
-4.057466	A particularidade
-3.053938	A partida
-1.877179	A partir
-3.340181	A passagem
-3.340181	A patinadora
-4.057466	A paz
-3.053938	A pena
-4.057466	A pergunta:
-3.340181	A permanência
-4.057466	A perseguição
-4.057466	A perícia
-4.057466	A pesca
-2.45121	A pesquisa
-3.053938	A peça
-4.057466	A pilha
-3.340181	A pior
-4.057466	A pizzaria
-4.057466	A plataforma
-4.057466	A platéia,
-4.057466	A poluição
-3.340181	A polêmica
-1.797998	A polícia
-4.057466	A polícia,
-2.754076	A política
-3.053938	A população
-4.057466	A porcentagem
-4.057466	A pornografia
-4.057466	A porta-voz
-3.340181	A portaria
-3.340181	A possibilidade
-4.057466	A poucos
-4.057466	A praia
-4.057466	A praia,
-4.057466	A praxe
-3.053938	A praça
-4.057466	A praça,
-4.057466	A prefaciadora
-3.340181	A prefeita
-2.754076	A prefeitura
-4.057466	A prefeitura,
-2.876478	A preocupação
-3.053938	A preparação
-4.057466	A preponderância
-4.057466	A presente
-3.340181	A presença
-4.057466	A preservação
-3.340181	A presidente
-4.057466	A presidência
-2.754076	A pressão
-4.057466	A prevenção
-2.547405	A previsão
-4.057466	A primavera
-2.053271	A primeira
-4.057466	A primeira-dama
-4.057466	A primeira-ministra
-2.312908	A principal
-4.057466	A princípio,
-3.340181	A prioridade
-3.340181	A prisão
-2.547405	A procura
-4.057466	A produtividade
-4.057466	A produtora
-4.057466	A produção
-4.057466	A proeza
-4.057466	A professora
-4.057466	A profissionalização,
-4.057466	A profissão
-3.053938	A programação
-4.057466	A programação,
-3.340181	A proibição
-3.340181	A proibição,
-4.057466	A proliferação
-4.057466	A promotoria
-4.057466	A propaganda
-2.3543	A proposta
-4.057466	A propriedade
-4.057466	A prosa
-2.754076	A prova
-4.057466	A providência
-3.340181	A provável
-4.057466	A proximidade
-3.340181	A prática
-2.876478	A própria
-4.057466	A prótese
-3.053938	A próxima
-4.057466	A psicologia,
-4.057466	A publicação
-4.057466	A publicidade
-4.057466	A publicitária
-4.057466	A punição
-4.057466	A pura
-4.057466	A página
-4.057466	A quadrilha
-4.057466	A qualidade
-4.057466	A quantia
-3.053938	A quantidade
-4.057466	A quarta
-3.053938	A que
-2.45121	A queda
-3.340181	A quem
-2.547405	A questão
-4.057466	A quinta
-4.057466	A quitação
-4.057466	A rapidez
-3.053938	A razão
-3.340181	A realidade
-3.053938	A realização
-3.340181	A reação
-3.340181	A rebeldia
-4.057466	A rebelião
-4.057466	A receita
-4.057466	A recomendação
-4.057466	A reconstituição
-3.340181	A recuperação
-4.057466	A redação
-2.876478	A rede
-4.057466	A rede,
-2.754076	A redução
-4.057466	A reeleição
-4.057466	A refinaria
-3.340181	A reforma
-3.053938	A região
-2.754076	A regra
-4.057466	A regra,
-4.057466	A reintegração
-4.057466	A relação
-4.057466	A religião
-4.057466	A remuneração
-4.057466	A renda
-4.057466	A renovação
-3.340181	A renúncia
-3.053938	A reportagem
-4.057466	A representação
-4.057466	A repressão
-4.057466	A resolução
-3.340181	A responsabilidade
-2.754076	A resposta
-4.057466	A ressalva,
-4.057466	A ressonância
-4.057466	A retirada
-4.057466	A retomada
-4.057466	A retrospectiva
-2.3543	A reunião
-3.340181	A revista
-4.057466	A revista,
-3.053938	A revisão
-4.057466	A revolta
-4.057466	A rica
-3.340181	A rigor,
-4.057466	A riqueza
-4.057466	A roleta
-4.057466	A rota
-4.057466	A roupa
-3.053938	A rua
-3.340181	A rádio
-4.057466	A rádio,
-4.057466	A réplica
-4.057466	A saber:
-4.057466	A sacola,
-4.057466	A safra
-3.340181	A sala
-4.057466	A salada
-4.057466	A salutar
-4.057466	A saudade
-2.754076	A saída
-4.057466	A saída,
-4.057466	A seca
-4.057466	A secessão
-4.057466	A secretaria
-4.057466	A secretarias
-4.057466	A secretária
-4.057466	A seguir
-2.45121	A seguir,
-2.695182	A segunda
-3.340181	A segunda,
-4.057466	A segurança
-2.178209	A seleção
-3.340181	A sensação
-4.057466	A sentença
-4.057466	A separação
-3.340181	A sequência
-3.340181	A sessão
-4.057466	A seu
-3.340181	A seção
-4.057466	A simples
-4.057466	A simulação
-3.340181	A sindicância
-4.057466	A sintaxe
-4.057466	A sistematização
-2.178209	A situação
-3.340181	A sociedade
-4.057466	A solicitação
-2.547405	A solução
-4.057466	A sonoridade
-4.057466	A sopa
-3.340181	A sra.
-3.053938	A sua
-4.057466	A substituição
-4.057466	A substância
-4.057466	A sugestão
-4.057466	A superestrutura,
-4.057466	A superindexação
-4.057466	A superintendência
-4.057466	A superposição
-4.057466	A supervisão
-4.057466	A suposta
-4.057466	A supresa
-3.340181	A surpresa
-3.340181	A suspeita
-3.053938	A suspensão
-2.754076	A série
-3.053938	A tabela
-4.057466	A tal
-3.053938	A tarefa
-4.057466	A tatuagem
-3.053938	A taxa
-4.057466	A taça
-4.057466	A tecnologia
-4.057466	A tela
-4.057466	A televisão
-4.057466	A tempo,
-3.340181	A temporada
-4.057466	A tempura
-4.057466	A temática
-4.057466	A tendênc`ia
-2.45121	A tendência
-3.340181	A teoria
-4.057466	A tequila,
-3.053938	A terceira
-3.340181	A tese
-4.057466	A tinta
-4.057466	A top
-3.053938	A torcida
-4.057466	A toxoplasmose
-4.057466	A tradição
-4.057466	A tragédia
-4.057466	A trajetória
-3.340181	A tranquilidade
-4.057466	A transação
-3.053938	A transferência
-4.057466	A transformação
-4.057466	A transição
-4.057466	A traseira
-4.057466	A tribo
-4.057466	A trilha
-4.057466	A tristeza
-2.695182	A troca
-4.057466	A tropa
-3.340181	A trupe
-4.057466	A tumorectomia
-3.053938	A turma
-4.057466	A turnê
-4.057466	A tática
-3.053938	A técnica
-4.057466	A uma
-3.340181	A unificação
-4.057466	A urna
-4.057466	A usina
-2.876478	A utilização
-4.057466	A vaga
-3.340181	A vantagem
-4.057466	A variação
-4.057466	A vastidão
-3.340181	A vegetação
-2.876478	A velha
-4.057466	A velocidade
-4.057466	A velocista
-4.057466	A venda
-4.057466	A ventania
-4.057466	A verba
-3.053938	A verdade
-3.340181	A verdade,
-4.057466	A versatilidade
-2.45121	A versão
-4.057466	A viabilização
-3.053938	A viagem
-4.057466	A vice
-4.057466	A vice-presidente
-2.754076	A vida
-4.057466	A violinista
-3.340181	A violência
-4.057466	A visão
-3.053938	A vitória
-4.057466	A vitória,
-4.057466	A viúva
-4.057466	A você
-3.340181	A volta
-3.340181	A votação
-3.340181	A voz
-4.057466	A vítima
-3.340181	A zaga
-4.057466	A zona
-4.057466	A «Colors»,
-4.057466	A «Onda
-4.057466	A «Ráscal
-4.057466	A «Vanity
-4.057466	A «assustadora
-4.057466	A «axé
-4.057466	A «bomba»
-4.057466	A «convergência
-4.057466	A «guerra
-4.057466	A «política
-4.057466	A «totora»,
-4.057466	A África
-4.057466	A Ásia
-4.057466	A água
-3.340181	A área
-4.057466	A âncora
-3.340181	A é
-4.057466	A ênfase
-4.057466	A última
-2.275119	A única
-1.305225	A, B
-1.305225	A, D,
-1.305225	A, com
-1.305225	A, que
-0.5447351	A. </s>
-1.548263	A. C.
-1.548263	A. Galotti,
-1.548263	A. S.
-1.548263	A. Zivin
-0.7031654	ABB, assumiu
-1.004195	ABC .
-1.004195	ABC pesavam
-1.004195	ABC, onde
-1.004195	ABC, os
-1.004195	ABC-Roma, Alfredo
-1.004195	ABC-Roma, a
-0.6848501	ABCD .
-1.402135	ABCD e
-1.402135	ABCD não
-1.402135	ABCD para
-1.180287	ABCD, conhecido
-1.180287	ABCD, devem
-1.180287	ABCD, mas
-0.7031654	ABI Alfredo
-1.004195	ABL </caixa>
-1.004195	ABL é
-0.7031654	ABS até
-1.817109	ACM --
-1.817109	ACM .
-1.817109	ACM berrou
-1.817109	ACM disse
-1.817109	ACM e
-1.817109	ACM estava,
-1.817109	ACM está
-1.817109	ACM indicou
-1.817109	ACM lembra
-1.817109	ACM ou
-1.817109	ACM tem
-1.817109	ACM vai
-1.817109	ACM «tem
-1.004195	ACM, quer
-1.004195	ACM, «quem
-0.7031654	ACSP .
-0.7031654	ACT Media
-0.7031654	AD Thrash»
-0.7031654	ADIANTE DIZ:
-1.402135	AEB acha
-1.402135	AEB ainda
-1.402135	AEB estão
-1.402135	AEB tem
-1.402135	AEB é
-0.7031654	AEB, porque
-0.7031654	AFA .
-0.7031654	AFA, Julio
-0.7031654	AFPs são
-1.180287	AGF Brasil
-1.180287	AGF International,
-1.180287	AGF Resgatável
-0.7031654	AGORA, PT?
-0.7031654	AGRÍCOLA, PEDRO
-0.7031654	AIS é
-0.7031654	AIS, o
-0.7031654	AL: diminuir
-1.402135	ALBERTO DIAS
-0.2211471	ALBERTO HELENA
-0.7031654	ALEXANDRE BARROS
-0.7031654	ALLAIN .
-0.7031654	ALMEIDA, da
-0.7031654	ALONSO, da
-0.7031654	ALS .
-0.7031654	AM de
-0.7031654	AMANHÃ .
-0.7031654	AMANTES, de
-0.7031654	AMSTERDÃ .
-0.7031654	AMT .
-0.7031654	AMÉRICA DE
-0.7031654	AMÉRICANeneca; Edinan,
-0.7031654	ANDRÉ CHRISTOVAN
-0.7031654	ANDRÉA DANTAS
-0.7031654	ANJOS DA
-0.7031654	ANJOS, de
-0.7031654	ANOITEÇA, de
-0.7031654	ANPC, marcada
-0.7031654	ANTES QUE
-0.7031654	ANTUNES é
-1.180287	ANTÔNIO GIRON
-0.4630013	ANTÔNIO ZINI
-0.7031654	AP, o
-0.7031654	APOIAR INDICAÇÕES
-0.7031654	APPC .
-0.7031654	APROXIMOU-SE TIMIDAMENTE
-0.7031654	ARRASADA --
-0.7031654	ART atualmente
-0.7031654	ARTE DE
-0.2869101	AR» .
-0.7031654	ASSIM NÃO!
-0.7031654	ASSPM .
-0.7031654	ASTROS, Alberto
-0.7031654	ATP Tour
-0.7031654	ATP, dessa
-0.7031654	ATRAPALHA A
-0.7031654	ATT e
-1.004195	AUGUSTO DOS
-1.004195	AUGUSTO RIBEIRO
-0.7031654	AVENDANO e
-0.7031654	AVESTRUZ PREFEREM
-1.004195	AVP .
-1.004195	AVP e
-0.7031654	Aalto se
-1.004195	Aaron Presley
-1.004195	Aaron Spelling
-0.7031654	Ab'Saber --
-0.7031654	Ab'Saber, a
-0.7031654	Aba afirmou
-0.7031654	Abafa com
-0.7031654	Abaixo deste
-0.7031654	Abaixo, a
-0.7031654	Abalado, o
-0.7031654	Abandonamos o
-0.7031654	Abandonando deliberadamente
-0.7031654	Abarrotada de
-0.7031654	Abastecimento, Waldemar
-0.7031654	Abatido, muito
-0.7031654	Abbado, Simon
-0.7031654	Abdalla .
-1.004195	Abdenur .
-1.004195	Abdenur é
-0.7031654	Abdib .
-1.004195	Abdul Hack
-1.004195	Abdul Hadi
-0.7031654	Abdula Konak
-0.7031654	Abdullah Saleh,
-0.7031654	Abe Hamilton,
-0.7031654	Abel Ferrara
-0.7031654	Abelha, Tigres
-0.7031654	Abercrombie &
-0.7031654	Abernéssia .
-0.7031654	Aberta em
-1.305225	Aberto a
-0.3016971	Aberto da
-0.7031654	Aberto, mas
-0.7031654	Abicalçados Adimar
-0.7031654	Abinee .
-0.7031654	Abinne, a
-0.7031654	Abit, que
-0.7031654	Abollhasan Bani-Sadr
-0.7031654	Abouhalima estão
-0.7031654	Abrahams, editor
-1.004195	Abram Szajman
-1.004195	Abram Szajman,
-0.7031654	Abramge, Arlindo
-0.7031654	Abranches concorda,
-0.7031654	Abranches, cientista
-0.7031654	Abrandou seu
-1.004195	Abrapp optou
-1.004195	Abrapp vai
-1.004195	Abras .
-1.004195	Abras disse
-1.004195	Abras, de
-1.004195	Abras, o
-0.7031654	Abravest, que
-0.7031654	Abraão, Isaac
-1.180287	Abre a
-1.180287	Abre no
-1.180287	Abre o
-1.402135	Abreu .
-1.402135	Abreu O.
-0.6848501	Abreu e
-1.402135	Abreu tiveram
-0.9858801	Abreu, autor
-1.703165	Abreu, claro,
-1.703165	Abreu, defendiam
-0.9858801	Abreu, disse
-1.703165	Abreu, no
-1.703165	Abreu, não
-1.703165	Abreu, o
-1.703165	Abreu, que
-1.004195	Abrir as
-1.004195	Abrir nova
-1.004195	Abrolhos, espalham
-1.004195	Abrolhos, para
-0.7031654	Abro» .
-0.7031654	Abrão, proprietário
-0.7031654	Absolut Vodka,
-0.7031654	Abstratos entre
-1.004195	Abu Bakr
-1.004195	Abu Zuluf,
-0.7031654	Abílio Diniz
-0.7031654	Acabam dormindo
-0.7031654	Acabamos de
-0.7031654	Acabaram passando
-0.7031654	Acabarão percebendo
-0.7031654	Acabei me
-1.004195	Acabou a
-1.004195	Acabou saindo
-0.7031654	Acabou-se a
-1.548263	Academia .
-1.548263	Academia Militar,
-0.5447351	Academia Nacional
-0.8309782	Academia de
-1.004195	Acadêmicos de
-1.004195	Acadêmicos do
-0.7031654	Acariciou o
-0.7031654	Acaso» .
-0.7031654	Accugraph no
-0.7031654	Aceitei substituir
-0.7031654	Acencio e
-0.7031654	Acendeu dois
-0.7031654	Acervo bem
-0.7031654	Acesso: a
-0.7031654	Acessórios importados
-0.1242371	Acha que
-0.1767584	Acham que
-1.004195	Achava que
-1.004195	Achava sua
-1.004195	Achei interessante
-1.004195	Achei que
-2.326415	Acho .
-2.326415	Acho bom
-2.326415	Acho fundamental,
-2.326415	Acho importante
-2.326415	Acho legal,
-2.326415	Acho mais
-2.326415	Acho particularmente
-2.326415	Acho perfeito
-0.1318876	Acho que
-1.609129	Acho que,
-2.326415	Acho ótimo
-0.4630013	Acima de
-1.180287	Acima disso,
-0.7031654	Acionando os
-0.7031654	Acionistas» pela
-0.7031654	Aclimação .
-0.7031654	Aclimação, um
-0.7031654	Acompanhada de
-0.7031654	Acompanhadas por
-0.7031654	Acompanham o
-0.7031654	Acompanhar uma
-0.7031654	Aconselha-se o
-0.7031654	Acontece que
-0.7031654	Acordeon, a
-0.7031654	Acostumado agora
-0.7031654	Acostumados a
-1.004195	Acqua .
-1.004195	Acqua e
-1.004195	Acre .
-1.004195	Acre prevalece
-1.305225	Acre, Amapá
-1.305225	Acre, Romildo
-1.305225	Acre, Roraima
-1.305225	Acre, é
-0.1242371	Acredita que
-0.7031654	Acredita-se que
-0.7031654	Acreditamos que
-1.402135	Acredito em
-0.3986071	Acredito que
-1.402135	Acredito que,
-0.7031654	Acredito, sim,
-0.7031654	Acrescenta que
-0.1767584	Acrescentou que
-0.7031654	Acrescentou: </s>
-0.7031654	Acres», está
-1.004195	Acrobático Fratelli
-1.004195	Acrobático Fratelli,
-0.7031654	Acrópole e
-0.7031654	Acuados, os
-0.7031654	Acusa-se o
-0.7031654	Acusada por
-0.7031654	Acusavam-no de
-0.7031654	Acusações de
-0.7031654	Acúmulo de
-0.7031654	Adaime embarcam
-0.7031654	Adalberto de
-0.7031654	Adalgisa», coleção
-0.7031654	Adami também
-0.7031654	Adami, são
-0.7031654	Adamir Souza
-0.7031654	Adams e
-0.7031654	Adams, presidente
-0.7031654	Adaptado da
-0.7031654	Adauto Novaes
-1.004195	Addams era
-1.004195	Addams é
-1.004195	Addams, da
-1.004195	Addams, que
-0.7031654	Addison, no
-0.7031654	Adefasagem não
-1.180287	Adelaide Amaral
-1.180287	Adelaide critica
-1.180287	Adelaide por
-0.7031654	Adelaide, também,
-0.7031654	Adelino dos
-0.7031654	Adelmar Sabino,
-0.7031654	Adelson Marcelino
-1.305225	Ademais, desse
-1.305225	Ademais, elevar
-1.305225	Ademais, os
-1.305225	Ademais, parte
-0.2869101	Ademar Sabino
-0.7031654	Adenauer .
-0.7031654	Adermina, Zoltec,
-0.7031654	Adesão Popular
-0.7031654	Adeus, em
-0.7031654	Adiantou apenas
-1.004195	Adib Jatene
-1.004195	Adib Jatene,
-0.7031654	Adicionalmente, nos
-0.7031654	Adicione o
-0.7031654	Adidas, fabricante
-0.7031654	Adil .
-0.7031654	Adimar Schievelbein
-0.7031654	Administrativa, Luiz
-0.7031654	Administrativo Brasileiro»,
-0.7031654	Administrativos Especiais,
-1.879257	Administração .
-1.879257	Administração Pública,
-0.3691953	Administração Regional
-1.879257	Administração afirmou
-1.879257	Administração da
-1.161971	Administração do
-1.161971	Administração e
-1.004195	Administrações Regionais
-1.004195	Administrações Regionais,
-0.7031654	Adminsitração Regional
-0.7031654	Admira o
-0.7031654	Admitiu somente
-0.7031654	Adner .
-1.305225	Adolescente .
-1.305225	Adolescente em
-1.305225	Adolescente garante
-1.305225	Adolescente informa
-0.7031654	Adolescente» terá
-0.3016971	Adolfo Lutz
-1.305225	Adolfo Lutz,
-0.7031654	Adolphe Sax,
-0.7031654	Adoraria se
-0.7031654	Adorava o
-1.004195	Adorno, essa
-1.004195	Adorno, é
-0.7031654	Adotou as
-0.7031654	Adrian Knup
-0.7031654	Adriana, que
-1.305225	Adriane Galisteu,
-1.305225	Adriane está
-1.305225	Adriane lhe
-1.305225	Adriane trabalha
-1.004195	Adriano Aprá
-1.004195	Adriano já
-0.7031654	Adriano; Fabinho,
-0.7031654	Adriano» ou
-0.7031654	Adrieli: r
-0.7031654	Adrien Taunay,
-0.7031654	Adriático .
-0.7031654	Adroaldo Streck,
-0.7031654	Aduan, do
-0.7031654	Aduaneira, então,
-0.7031654	Adubos e
-0.7031654	Adventista de
-0.7031654	Adventure tem
-0.7031654	Advisor» deve
-0.7031654	Advocaat, disse
-0.7031654	Advocacia: </s>
-1.004195	Advogados .
-1.004195	Advogados de
-0.7031654	Adylson Motta,
-1.004195	Adyr Silva
-1.004195	Adyr Silva,
-0.7031654	Adão, uma
-0.2869101	Adélia .
-0.7031654	Adílson Rodrigues,
-0.7031654	Aedes sp,
-0.7031654	Aero, da
-0.7031654	Aeroanta .
-0.7031654	Aeroanta, Columbia,
-0.7031654	Aeroespacial italiano
-0.7031654	Aeronautas, José
-0.7031654	Aeronáutica, Lélio
-0.7031654	Aeronáutica» .
-1.004195	Aeroporto de
-1.004195	Aeroporto e
-0.7031654	Afanásio .
-1.004195	Afastado de
-1.004195	Afastado há
-0.7031654	Afeganistão, por
-0.7031654	Affonso Celso
-0.7031654	Afiador .
-1.180287	Afif Domingos
-1.180287	Afif Domingos,
-1.180287	Afif para
-1.180287	Afinal de
-1.180287	Afinal por
-1.180287	Afinal é
-2.064893	Afinal, FHC
-1.347608	Afinal, a
-2.064893	Afinal, as
-2.064893	Afinal, até
-2.064893	Afinal, da
-2.064893	Afinal, dela
-2.064893	Afinal, estabilidade
-2.064893	Afinal, na
-2.064893	Afinal, nem
-0.7026094	Afinal, o
-2.064893	Afinal, os
-2.064893	Afinal, paulistas
-2.064893	Afinal, por
-2.064893	Afinal, quais
-2.064893	Afinal, segundo
-2.064893	Afinal, tanto
-2.064893	Afinal, todos
-0.4630013	Afirma que
-1.180287	Afirma que,
-0.7031654	Afirma-o, de
-0.7031654	Afirma-se também
-1.180287	Afirmou que
-1.180287	Afirmou sua
-1.180287	Afirmou também
-1.004195	Afonsa Oliveira,
-1.004195	Afonsa após
-1.180287	Afonso Antonio
-1.180287	Afonso Feijó
-1.180287	Afonso Rocha,
-1.180287	Afora as
-1.180287	Afora esses
-1.180287	Afora historicismo,
-0.7031654	Afro .
-1.004195	Afrânio Peixoto
-1.004195	Afrânio Riul,
-0.2869101	After God»,
-0.7031654	Agarrado ao
-0.7031654	Agassi são
-0.7031654	Agatha Christie
-1.004195	Agbo .
-1.004195	Agbo ficou
-0.7031654	Agenor .
-0.7031654	Agfa .
-0.7031654	Aglomerados em
-1.004195	Agnes de
-1.004195	Agnes estão
-0.7031654	Agnés Varda
-2.29423	Agora .
-2.29423	Agora a
-2.29423	Agora as
-2.29423	Agora diz
-1.290702	Agora ela
-1.576945	Agora ele
-2.29423	Agora eles
-1.576945	Agora estou
-2.29423	Agora está
-2.29423	Agora estão
-2.29423	Agora há
-2.29423	Agora imagina
-2.29423	Agora lhes
-2.29423	Agora não,
-2.29423	Agora nós
-2.29423	Agora o
-2.29423	Agora pode
-1.290702	Agora que
-2.29423	Agora quero
-2.29423	Agora suponha
-2.29423	Agora só
-2.29423	Agora temos
-2.29423	Agora tratar-se-á,
-2.29423	Agora vai
-2.29423	Agora vamos
-2.29423	Agora vem
-1.576945	Agora você
-2.29423	Agora vou
-1.113242	Agora é
-1.267839	Agora, a
-2.271367	Agora, abrem
-2.271367	Agora, afastado
-2.271367	Agora, além
-2.271367	Agora, as
-2.271367	Agora, até
-2.271367	Agora, centra
-2.271367	Agora, ele
-1.554082	Agora, em
-2.271367	Agora, esse
-2.271367	Agora, estamos
-1.554082	Agora, está
-2.271367	Agora, isso
-2.271367	Agora, meu
-2.271367	Agora, nada
-2.271367	Agora, nenhum
-2.271367	Agora, no
-2.271367	Agora, num
-1.090379	Agora, o
-1.267839	Agora, os
-2.271367	Agora, quando
-2.271367	Agora, quem
-2.271367	Agora, se
-2.271367	Agora, só
-2.271367	Agora, temos
-2.271367	Agora, terá
-2.271367	Agora, tudo
-2.271367	Agora, vai
-1.004195	Agora» em
-1.004195	Agora» ou
-0.7031654	Agostini, Messias
-0.7031654	Agosto será
-1.065061	Agricultura .
-1.065061	Agricultura da
-0.7788184	Agricultura de
-1.782347	Agricultura do
-1.065061	Agricultura dos
-1.782347	Agricultura entrou
-1.782347	Agricultura é
-1.004195	Agricultura, Vicente
-1.004195	Agricultura, os
-0.7031654	Agricultura? </s>
-0.7031654	Agride o
-0.7031654	Agripino Maia
-1.305225	Agropecuária .
-1.305225	Agropecuária América
-1.305225	Agropecuária do
-1.305225	Agropecuária e
-0.7031654	Agrário .
-0.7031654	Agrícola Comum,
-0.7031654	Agrícolas de
-0.7031654	Agrícolas, com
-0.7031654	Agrônomos do
-0.7031654	Agua de
-0.7031654	Aguardamos até
-0.7031654	Aguarde os
-0.7031654	Aguas» do
-0.7031654	Aguente se
-1.004195	Aguilar --
-1.004195	Aguilar para
-1.004195	Aguilar, Carlos
-1.004195	Aguilar, diz
-1.907285	Agência Espacial
-0.1627273	Agência Folha
-1.907285	Agência Folha,
-1.907285	Agência Meteorológica
-1.907285	Agência Oficial
-1.907285	Agência de
-0.7031654	Agências Internacionais
-0.3016971	Ah Fang
-1.305225	Ah Fang,
-0.2869101	Ah! </s>
-1.305225	Ah, e
-1.305225	Ah, mas
-1.305225	Ah, quer
-1.305225	Ah, sei
-0.7031654	Ahern é
-0.7031654	Ahistória de
-0.7031654	Ahmad Ajaj
-1.180287	Ahmed Haffa,
-1.180287	Ahmed Kudsi
-1.180287	Ahmed Tibi,
-0.2869101	Ai Minha
-1.004195	Ai, mãe
-1.004195	Ai, que
-0.3245111	Aids .
-1.981919	Aids de
-1.981919	Aids deverá
-1.981919	Aids e
-1.981919	Aids foi
-1.981919	Aids mas
-0.9783907	Aids no
-1.981919	Aids nos
-1.981919	Aids sem
-1.180287	Aids, Bill
-1.180287	Aids, a
-1.180287	Aids, já
-0.7031654	Aids» e
-0.7031654	Aikman disse
-1.180287	Ailey American
-1.180287	Ailey Repertory
-1.180287	Ailey criou
-1.180287	Ailton Damasceno,
-1.180287	Ailton Gobira,
-1.180287	Ailton Reis,
-2.427441	Ainda aqui,
-0.8211859	Ainda assim,
-2.427441	Ainda com
-2.427441	Ainda estava
-2.427441	Ainda ficam
-2.427441	Ainda hoje,
-1.710156	Ainda há
-2.427441	Ainda infunde
-1.710156	Ainda mais
-2.427441	Ainda mais,
-1.423913	Ainda na
-2.427441	Ainda nesta
-2.427441	Ainda nos
-0.7242759	Ainda não
-2.427441	Ainda outros
-1.065157	Ainda que
-2.427441	Ainda restam
-2.427441	Ainda restaria
-1.246453	Ainda segundo
-2.427441	Ainda sem
-1.710156	Ainda tem
-2.427441	Ainda temos
-2.427441	Ainda vivendo
-2.427441	Ainda é?
-0.7031654	Ainda: o
-1.180287	Air Cargo
-0.4630013	Air France
-0.7031654	Airbus .
-0.5221771	Aires .
-1.703165	Aires </situacao>
-1.703165	Aires de
-1.703165	Aires e
-1.703165	Aires estava
-1.703165	Aires o
-1.703165	Aires sob
-1.180287	Aires, jogou
-1.180287	Aires, o
-1.180287	Aires, que
-0.5879401	Airlines .
-1.305225	Airlines também
-1.305225	Airlines é
-0.7031654	Airton Mangini,
-0.7031654	Airways, em
-0.7031654	Ajaj e
-0.7031654	Ajax e
-0.7031654	Ajax, está
-0.7031654	Ajuda a
-0.7031654	Ajustes como
-1.004195	Akabane, o
-1.004195	Akabane, vice-presidente
-1.180287	Akashi, a
-1.180287	Akashi, admitiu
-1.180287	Akashi, reprsentante
-0.7031654	Akhavi, especialista
-0.7031654	Akihito, e
-0.7031654	Akinwunmi, presidente
-0.7031654	Akira Nakasuga
-1.606255	Al .
-1.606255	Al Anad,
-1.606255	Al Deayea
-1.606255	Al Gore
-1.606255	Al Pacino
-1.606255	Al Quds
-1.606255	Al Ries
-1.606255	Al Unser
-0.7031654	Al-Aouiran para
-0.7031654	Al-Aqsa antes
-0.7031654	Ala Szerman
-0.7031654	Aladim .
-1.180287	Alagoas .
-1.180287	Alagoas à
-1.180287	Alagoas é
-1.402135	Alagoas, Estado
-1.402135	Alagoas, Geraldo
-1.402135	Alagoas, PC
-1.402135	Alagoas, Ruben
-1.402135	Alagoas, tenho
-0.7031654	Alagoas...» </s>
-1.004195	Alain Delon
-1.004195	Alain Marsaud,
-0.7031654	Alameda dos
-0.7031654	Alami e
-1.402135	Alan Boksic,
-1.402135	Alan Menken,
-1.402135	Alan Pakula
-1.402135	Alan Rothenberg,
-1.402135	Alan Rudolph
-1.004195	Alasca, de
-1.004195	Alasca, território
-0.7031654	Alaska Airlines
-1.004195	Albano .
-1.004195	Albano Franco
-0.7031654	Albano, e
-0.7031654	Alberico Sousa
-0.7031654	Albero, que
-1.305225	Albert Camus
-1.305225	Albert Collins
-1.305225	Albert Reynolds,
-1.305225	Albert Sabin
-0.7031654	Alberta Ferreti
-0.7031654	Albertini lança
-1.676076	Alberto .
-2.393362	Alberto Ascari
-2.393362	Alberto Bahia,
-2.393362	Alberto Brizola
-2.393362	Alberto Calvo
-2.393362	Alberto Corazza,
-2.393362	Alberto Dias,
-2.393362	Alberto Dualib
-2.393362	Alberto Dualibi
-1.676076	Alberto Helena
-2.393362	Alberto Kohan,
-2.393362	Alberto Nanô,
-2.393362	Alberto Nepomuceno
-2.393362	Alberto Ortiz,
-0.5762527	Alberto Parreira
-1.389833	Alberto Parreira,
-2.393362	Alberto Parreira:
-2.393362	Alberto R.
-2.393362	Alberto Ramos
-1.389833	Alberto Silva
-1.676076	Alberto Silva,
-2.393362	Alberto Strufaldi,
-2.393362	Alberto Torres
-2.393362	Alberto Weiss
-2.393362	Alberto da
-1.212373	Alberto e
-2.393362	Alberto será
-1.004195	Alberto, Brito,
-1.004195	Alberto, João
-0.7031654	Alberton, a
-0.7031654	Albertson International,
-0.7031654	Albizu, presidente
-1.004195	Albuquerque Lins
-1.004195	Albuquerque diz
-0.7031654	Alca terá
-0.7031654	Alcatel brasileira,
-0.7031654	Alcatrazes oferece
-0.7031654	Alceu Ranzi,
-0.7031654	Alciberg, outra
-0.7031654	Alcides Nogueira,
-0.7031654	Alcyon e
-0.7031654	Alcântara disse
-0.7031654	Alcântara, no
-0.7031654	Alcântara», diz
-0.6848501	Aldair --
-0.6848501	Aldair e
-1.402135	Aldair no
-1.180287	Aldair, Ronaldo
-1.180287	Aldair, na
-1.180287	Aldair, tem
-0.7031654	Aldergrove, na
-1.004195	Aldo Rico,
-1.004195	Aldo quer
-0.7031654	Aldrabões .
-0.7031654	Aldus .
-0.7031654	Alea caiu
-0.7031654	Alea, que
-1.481317	Alec .
-1.481317	Alec Então
-0.7640314	Alec Eu
-1.481317	Alec Guiness
-1.481317	Alec Nunca
-0.7031654	Alechinsky .
-0.7031654	Alegam que
-0.7031654	Alegando irregularidades
-1.305225	Alegre .
-1.305225	Alegre Olívio
-1.305225	Alegre está
-1.305225	Alegre que
-1.180287	Alegre, Curitiba
-1.180287	Alegre, causando
-1.180287	Alegre, vários
-0.7031654	Alegre: Viamão,
-0.7031654	Aleijadinho fez
-0.7031654	Aleixo .
-1.004195	Alejandro Biondini
-1.004195	Alejandro Villanueva,
-0.5228788	Alemanha .
-2.305225	Alemanha Ocidental
-2.305225	Alemanha ainda
-2.305225	Alemanha assume
-2.305225	Alemanha contém
-2.305225	Alemanha desempenha
-2.305225	Alemanha deu
-2.305225	Alemanha devem
-0.60206	Alemanha e
-1.58794	Alemanha está
-2.305225	Alemanha ficou
-2.305225	Alemanha foi
-2.305225	Alemanha hoje?
-2.305225	Alemanha já
-2.305225	Alemanha mostrou
-2.305225	Alemanha que
-2.305225	Alemanha tivesse
-1.58794	Alemanha é
-2.004195	Alemanha, Argentina
-2.004195	Alemanha, Espanha,
-2.004195	Alemanha, França
-1.000667	Alemanha, a
-2.004195	Alemanha, ao
-2.004195	Alemanha, de
-2.004195	Alemanha, domingo,
-2.004195	Alemanha, em
-2.004195	Alemanha, no
-2.004195	Alemanha, não
-2.004195	Alemanha, o
-1.000667	Alemanha, onde
-2.004195	Alemanha, por
-1.28691	Alemanha, que
-2.004195	Alemanha, Áustria
-0.7031654	Alemanha: o
-0.7031654	Alemã de
-1.004195	Alemães buscam
-1.004195	Alemães vivem
-0.3672751	Alemão .
-1.548263	Alemão declarou-se
-1.548263	Alemão e
-1.548263	Alemão que
-1.305225	Alemão, muito
-1.305225	Alemão, no
-1.305225	Alemão, nos
-1.305225	Alemão, só
-1.657408	Alencar Gomes
-1.657408	Alencar Não
-1.657408	Alencar defendeu
-0.9401226	Alencar e
-1.657408	Alencar entrou
-1.657408	Alencar inclui
-1.657408	Alencar para
-1.657408	Alencar teria
-1.305225	Alencar, a
-1.305225	Alencar, candidato
-1.305225	Alencar, o
-1.305225	Alencar, «Dom
-1.004195	Alesi foi
-1.004195	Alesi tentava
-0.7031654	Alesi, como
-1.481317	Alessandro D'Eclesia
-1.481317	Alessandro Manzoni,
-0.7640314	Alessandro Tierni
-0.7640314	Alessandro Tierni,
-1.402135	Alex Alves
-1.402135	Alex Calvo
-1.402135	Alex Erlach,
-1.402135	Alex Trotman,
-1.402135	Alex serem
-0.7031654	Alex, do
-1.606255	Alexander Banov,
-1.606255	Alexander Borodin
-1.606255	Alexander Calder,
-1.606255	Alexander Chokhin
-1.606255	Alexander Glazunov,
-1.606255	Alexander Lukashenko
-1.606255	Alexander Popov
-1.606255	Alexander Rutskoi
-1.180287	Alexandra Borghese
-1.180287	Alexandra Brochen
-1.180287	Alexandra de
-1.657408	Alexandre .
-1.657408	Alexandre Borges
-0.9401226	Alexandre Dupeyrat
-0.9401226	Alexandre Dupeyrat,
-0.9401226	Alexandre Herchcovitch
-1.657408	Alexandre Levy
-0.7031654	Alexandria acaba
-1.481317	Alexis Kanyarengwe,
-1.481317	Alexis Stepanenko
-0.3003283	Alexis Stepanenko,
-0.7031654	Alf eram
-0.2869101	Alfio Basile
-0.7031654	Alfonsín, acha
-0.7031654	Alfredinho viajou
-1.606255	Alfredo Biondi,
-1.606255	Alfredo Neves
-1.606255	Alfredo Pimenta,
-1.606255	Alfredo Saad
-1.606255	Alfredo Viana
-1.606255	Alfredo Volpi,
-1.606255	Alfredo Weiszflog,
-1.606255	Alfredo cobrou
-0.7031654	Alfredo; Nando,
-1.004195	Alfândega e
-1.004195	Alfândega em
-1.004195	Algo como
-1.004195	Algo feito
-0.7031654	Alguma coisa
-1.817109	Algumas administradoras
-1.817109	Algumas agências
-1.817109	Algumas ainda
-1.817109	Algumas bandas
-1.817109	Algumas embaixadas
-1.817109	Algumas empresas
-1.817109	Algumas grandes
-1.817109	Algumas lojas
-1.817109	Algumas medidas
-1.817109	Algumas pedras
-1.817109	Algumas pessoas
-1.817109	Algumas pichações
-1.817109	Algumas sugestões:
-2.180287	Alguns Estados
-2.180287	Alguns acidentes
-2.180287	Alguns agentes
-2.180287	Alguns analistas
-2.180287	Alguns anunciantes
-2.180287	Alguns até
-2.180287	Alguns bancos
-2.180287	Alguns bons
-2.180287	Alguns chegaram
-2.180287	Alguns colocam
-2.180287	Alguns comandos
-2.180287	Alguns custam
-2.180287	Alguns dos
-2.180287	Alguns exemplares
-2.180287	Alguns habitantes
-2.180287	Alguns jogadores
-2.180287	Alguns juízes
-2.180287	Alguns minutos
-2.180287	Alguns moradores
-2.180287	Alguns motoristas
-2.180287	Alguns parlamentares
-2.180287	Alguns países
-2.180287	Alguns poemas
-2.180287	Alguns proprietários
-2.180287	Alguns registros,
-2.180287	Alguns simplesmente
-2.180287	Alguns tenistas
-2.180287	Alguns tipos
-2.180287	Alguns treinadores
-2.180287	Alguns usaram
-1.004195	Alguém havia
-1.004195	Alguém há
-1.606255	Ali Abdullah
-0.8889701	Ali Salem
-1.606255	Ali ele
-1.606255	Ali encontrou
-1.606255	Ali escreveu
-1.606255	Ali estará
-1.606255	Ali estão
-1.481317	Ali, existe
-1.481317	Ali, foi
-1.481317	Ali, pegou
-1.481317	Ali, segundo
-1.481317	Ali, um
-1.481317	Ali, uma
-0.7031654	Aliada! </s>
-0.7031654	Aliados de
-0.7031654	Alianza .
-1.004195	Aliança Democrática
-1.004195	Aliança Liberal?
-1.004195	Alice eram
-1.004195	Alice se
-0.7031654	Alimentação e
-0.7031654	Alimentos e
-0.7031654	Aline no
-1.004195	Aliás também
-1.004195	Aliás um
-2.004195	Aliás, Carlos
-2.004195	Aliás, agora
-2.004195	Aliás, depois
-2.004195	Aliás, desde
-2.004195	Aliás, disputa
-2.004195	Aliás, do
-1.28691	Aliás, foi
-1.000667	Aliás, já
-2.004195	Aliás, muito
-2.004195	Aliás, nada
-2.004195	Aliás, naquela
-2.004195	Aliás, nessa
-1.000667	Aliás, o
-2.004195	Aliás, se
-2.004195	Aliás, um
-0.7031654	Alketas Panagoulias,
-1.180287	Alkimar Moura
-1.180287	Alkimar Moura,
-1.180287	Alkimar Ribeiro
-1.004195	Alkimin achou
-1.004195	Alkimin que
-0.7031654	Allan Butterfield
-0.7031654	Allgemeine» recusaram
-0.2869101	Allman Brothers
-0.7031654	Alma Humana
-1.004195	Almada, Portugal
-1.004195	Almada, fala
-0.7031654	Almandoz .
-0.7031654	Almandoz, mais
-0.7031654	Almap .
-0.1767584	Almap/BBDO .
-1.004195	Alma», e
-1.004195	Alma», é
-0.7410298	Almeida .
-0.7410298	Almeida </caixa>
-1.744558	Almeida Jr.,
-1.744558	Almeida Neto,
-1.744558	Almeida de
-1.744558	Almeida e
-1.744558	Almeida escreve
-1.481317	Almeida, afirma
-1.481317	Almeida, fez
-1.481317	Almeida, o
-1.481317	Almeida, presidente
-1.481317	Almeida, que
-1.481317	Almeida, «olha
-0.7031654	Almeja, como
-0.6848501	Almir Alves
-1.402135	Almir Cronemberg,
-1.402135	Almir Negherbon,
-1.402135	Almir Pazzianotto
-1.305225	Almodóvar .
-0.5879401	Almodóvar e
-1.305225	Almodóvar que
-1.004195	Almoço em
-1.004195	Almoço especial
-0.7031654	Aloha Shirts,
-0.7031654	Aloisio Abreu,
-0.3672751	Aloizio Mercadante
-0.8309782	Aloizio Mercadante,
-1.548263	Aloizio vamos.»
-0.7031654	Aloizio, e
-0.7031654	Alonia e
-0.7031654	Alonso, da
-0.7031654	Aloysio Nunes
-1.305225	Aloísio Claudino/Emanuel
-1.305225	Aloísio Lorscheider,
-1.305225	Aloísio Masella
-1.305225	Aloísio Viug
-0.7031654	Aloízio Mercadante,
-0.7031654	Alpargatas Santista,
-0.7031654	Alphaser estarão
-0.7031654	Alphaville, controlada
-0.7031654	Alphonse Philippe
-0.7031654	Alquimista» .
-0.7031654	Alquimista», em
-0.7031654	Alta Noroeste,
-0.7031654	Alta, Uruguaiana,
-0.7031654	Altair Ramos
-0.7031654	Alterio revelou
-0.7031654	Alternativas e
-0.7031654	Altero Matteoli,
-0.7031654	Alteza Real
-0.7031654	Althusser .
-1.004195	Altino .
-1.004195	Altino Machado
-0.7031654	Altino, com
-1.180287	Altman .
-1.180287	Altman trabalhou
-1.180287	Altman vai
-1.180287	Altman, Alan
-1.180287	Altman, Rudolph
-1.180287	Altman, desde
-1.180287	Alto .
-1.180287	Alto da
-1.180287	Alto tem
-1.004195	Alto, cidade
-1.004195	Alto, torcendo
-0.2869101	Aluguel de
-0.7031654	Aluguel, hortifrutigranjeiros
-0.7031654	Aluguel» .
-1.004195	Aluizio Alves
-1.004195	Aluizio Mercadante
-0.7031654	Aluno escolhe
-1.180287	Alunos de
-1.180287	Alunos do
-1.180287	Alunos estão
-0.7031654	Aluísio Carvão
-0.7031654	Aluízio Alves,
-0.7031654	Alvarenga .
-0.7031654	Alvarenga, acusado
-0.7031654	Alvarez, a
-0.6702253	Alves .
-2.180287	Alves Boaventura,
-2.180287	Alves Filho
-2.180287	Alves Filho,
-1.463001	Alves Pereira
-2.180287	Alves Veríssimo
-2.180287	Alves ainda
-1.463001	Alves da
-1.176758	Alves de
-2.180287	Alves dos
-1.463001	Alves e
-2.180287	Alves na
-2.180287	Alves que
-2.180287	Alves quinta-feira
-2.180287	Alves receberiam
-2.180287	Alves também
-2.180287	Alves tem
-2.180287	Alves trocar
-2.180287	Alves votaram
-1.849293	Alves, Dalva
-1.849293	Alves, a
-1.849293	Alves, ao
-1.849293	Alves, até
-1.849293	Alves, diretor
-1.849293	Alves, identificar-se
-1.849293	Alves, motorista
-1.849293	Alves, numa
-1.849293	Alves, o
-1.849293	Alves, para
-1.849293	Alves, porém,
-1.849293	Alves, presidente
-1.849293	Alves, que
-1.849293	Alves, visitaram
-0.7031654	Alvim, secretário-geral
-0.1767584	Alvin Ailey
-0.7031654	Alvorada para
-1.180287	Alvorada, Cachoeirinha,
-1.180287	Alvorada, ficou
-1.180287	Alvorada, rua
-0.7031654	Alvorada», disse
-0.8356906	Além da
-1.329825	Além das
-0.5685188	Além de
-2.839886	Além de,
-2.122601	Além dele,
-2.839886	Além deles,
-2.839886	Além destes,
-2.122601	Além disso
-0.5239367	Além disso,
-2.839886	Além disto,
-0.9606293	Além do
-1.182478	Além dos
-0.7031654	Além, ambos
-0.7031654	Alô, vítimas
-0.7031654	Ama!», berra
-0.7031654	Amadeus, ou
-0.7031654	Amado e
-1.180287	Amado, Mãe
-1.180287	Amado, Roseana
-1.180287	Amado, filha
-0.7031654	Amador Bueno,
-1.180287	Amanda Hopkins,
-1.180287	Amanda tem
-1.180287	Amanda tentou
-0.7031654	Amandes afirmou
-1.180287	Amanhã </s>
-1.180287	Amanhã a
-1.180287	Amanhã todos
-1.180287	Amanhã, Gil
-1.180287	Amanhã, as
-1.180287	Amanhã, ele
-0.2869101	Amapá e
-1.027273	Amaral .
-1.744558	Amaral D'Avila
-1.744558	Amaral Netto
-1.744558	Amaral de
-1.027273	Amaral disse
-1.744558	Amaral entraria
-1.744558	Amaral não
-1.744558	Amaral para
-1.744558	Amaral que,
-1.606255	Amaral, Claudia
-1.606255	Amaral, chefe
-1.606255	Amaral, com
-1.606255	Amaral, confirmou
-1.606255	Amaral, outra
-0.6027271	Amaral, que
-0.7031654	Amaram .
-0.7031654	Amarante Cesare
-0.5879401	Amaro .
-1.305225	Amaro e
-1.305225	Amaro sem
-0.7031654	Amaro, dono
-0.7031654	Amar» e
-0.4630013	Amato --
-1.180287	Amato Neto
-1.180287	Amaury Chaves
-1.180287	Amaury Jr.
-1.180287	Amaury no
-1.879257	Amazonas --
-0.5758663	Amazonas .
-1.879257	Amazonas Shopping,
-1.879257	Amazonas da
-0.6982684	Amazonas e
-1.879257	Amazonas está
-1.879257	Amazonas investiga
-1.879257	Amazonas parece
-1.004195	Amazonas, Fátima
-1.004195	Amazonas, recebeu
-0.5221771	Amazônia .
-1.703165	Amazônia Legal
-1.703165	Amazônia Legal,
-1.703165	Amazônia e
-1.703165	Amazônia intensificam
-1.703165	Amazônia transforma
-1.703165	Amazônia vai
-1.004195	Amazônia, Henrique
-1.004195	Amazônia, interrompido
-0.7031654	Amazônia», diz
-0.7031654	Amban trabalha
-0.4630013	Ambas as
-1.180287	Ambas não
-0.7031654	Ambassadors", do
-0.7031654	Ambientais, que
-0.8309782	Ambiente .
-0.8309782	Ambiente da
-1.548263	Ambiente de
-0.8309782	Ambiente e
-1.180287	Ambiente, Altero
-1.180287	Ambiente, Clarismino
-1.180287	Ambiente, Krause
-1.879257	Ambos apontam
-1.879257	Ambos carregam
-1.879257	Ambos disseram
-1.879257	Ambos integraram
-1.879257	Ambos já
-1.879257	Ambos morrerão,
-1.879257	Ambos negam
-1.161971	Ambos os
-1.879257	Ambos parecem
-1.879257	Ambos percorrem
-1.879257	Ambos seguraram
-1.879257	Ambos sofreram
-1.879257	Ambos temos
-1.879257	Ambos têm
-0.7031654	Ameaça de
-0.7031654	Amelia Arenas
-1.180287	America Franchise
-1.180287	America Online,
-1.180287	America inaugurou
-0.7031654	America, no
-1.548263	American Dance
-0.8309782	American Evening»
-0.5447351	American Express
-1.548263	American o
-1.305225	Americana acontece
-1.305225	Americana de
-1.305225	Americana do
-1.305225	Americana na
-0.7031654	Americana, revela
-0.7031654	Americanas do
-0.7031654	Americanas, cervejaria
-0.7031654	Americana», de
-1.004195	Americano .
-1.004195	Americano é
-0.7031654	Americanópolis, depois
-0.2869101	Americas Watch
-0.7031654	America» .
-0.7031654	America», do
-0.7031654	Ames e
-0.7031654	Amigo de
-0.7031654	Amigo? </s>
-0.7031654	Amigos de
-0.7031654	Amil, diz
-1.004195	Amilcar Gramacho,
-1.004195	Amilcar de
-0.7031654	Amim também
-1.981919	Amin --
-0.6785287	Amin .
-1.981919	Amin assume
-1.981919	Amin com
-0.9783907	Amin e
-1.264634	Amin em
-1.981919	Amin excelente
-1.981919	Amin foi
-1.981919	Amin negou
-1.981919	Amin não
-1.981919	Amin ou
-1.981919	Amin participa
-1.402135	Amin, Enéas
-1.402135	Amin, candidato
-1.402135	Amin, não
-1.402135	Amin, rodava
-1.402135	Amin, só
-0.7031654	Amin? </s>
-0.7031654	Amina --
-0.7031654	Amina? </s>
-0.7031654	Amor .
-0.7031654	Amorcrusp .
-0.7031654	Amorebieta, com
-1.548263	Amorim --
-1.548263	Amorim .
-1.548263	Amorim de
-1.548263	Amorim está
-1.548263	Amorim na
-1.548263	Amorim o
-1.548263	Amorim é
-1.004195	Amorim, direito
-1.004195	Amorim, reuniu-se
-0.7031654	Amorin, especialmente
-1.004195	Amoroso foi
-1.004195	Amoroso incomodarem
-1.004195	Amoroso, Luizão,
-1.004195	Amoroso, não
-0.7031654	Amor» é
-0.7031654	Amos faz
-0.7031654	Amos, é
-0.7031654	Amostra do
-0.7031654	Amostras da
-0.7031654	Amoxil, Daraprin,
-0.7031654	Amo», ao
-0.7031654	Ampla .
-0.7031654	Ampliar o
-0.7031654	Amplicilina, Decadron
-0.7031654	Amr Moussa
-1.004195	Amsterdã, antes
-1.004195	Amsterdã, passou
-0.7031654	Amália Schmidt,
-1.004195	Amélia já
-1.004195	Amélia vai
-0.7690079	América .
-0.4679779	América Latina
-1.371735	América Latina,
-2.375263	América Latina:
-2.375263	América Latina»
-2.375263	América Latina»,
-2.375263	América Televisión
-2.375263	América com
-0.6720979	América do
-1.657978	América e
-2.375263	América estacionados
-2.375263	América são
-2.375263	América é
-1.402135	América, domingo
-0.6848501	América, no
-1.402135	América, o
-1.402135	América, que
-0.7031654	América? </s>
-1.481317	Américas .
-1.481317	Américas ao
-1.481317	Américas e
-1.481317	Américas em
-1.481317	Américas se
-1.481317	Américas é
-1.004195	Américas, Itamar
-1.004195	Américas, fazendo
-0.7031654	Américas»: </s>
-1.180287	Américo Carpentieri
-1.180287	Américo Lacombe,
-1.180287	Américo Medeiros,
-1.402135	An Autobiography»,
-1.402135	An Yan
-1.402135	An conseguiu
-1.402135	An descobriu
-1.402135	An não
-1.981919	Ana Cury
-1.981919	Ana Diniz
-1.981919	Ana Flávia
-1.981919	Ana Lucia
-1.981919	Ana Luiza
-1.981919	Ana Luíza
-1.981919	Ana Lúcia
-1.981919	Ana Maria
-1.981919	Ana Moser,
-0.8009307	Ana Paula
-1.981919	Ana Paula,
-1.981919	Ana Ragazo,
-1.981919	Ana Terra
-1.981919	Ana já
-1.981919	Ana lhe
-1.981919	Ana o
-0.7031654	Ana, nas
-0.7031654	Anad, a
-1.004195	Anakol do
-1.004195	Anakol e
-0.7031654	Analisado isoladamente,
-1.305225	Analistas disseram
-1.305225	Analistas esperavam
-1.305225	Analistas ouvidos
-1.305225	Analistas sugerem
-0.7031654	Ananindeua decidiu
-0.7031654	Anatol .
-0.7031654	Anatol, de
-1.004195	Anatoli .
-1.004195	Anatoli Tchubais
-0.7031654	Ancara que
-0.7031654	Ancelotti acompanhou
-0.7031654	Anchieta Helcias
-1.004195	Anchieta, represa
-1.004195	Anchieta, responsável
-0.7031654	Anchieta-Imigrantes volta
-0.7031654	Anchieta/Imigrantes, que
-0.7031654	Anchorage, Alasca,
-0.7031654	Ancona pouco
-0.7031654	Ancud escreveu
-0.7031654	Ancud, no
-0.7031654	Andaluz --
-0.7031654	Andante: a
-0.7031654	Andar de
-0.7031654	Anders Kristiansson
-1.004195	Andersen .
-1.004195	Andersen Consulting
-0.7031654	Andersen, Celso
-1.305225	Anderson Leão;
-1.305225	Anderson Rubbo
-1.305225	Anderson Rubbo,
-1.305225	Anderson e
-0.7031654	Anderson; Emiliano,
-1.004195	Andersson cortou
-1.004195	Andersson mostra
-0.7031654	Andersson, Schwarz
-0.7031654	Andes .
-0.7031654	Andima .
-0.7031654	Andino .
-1.004195	Andradas, de
-1.004195	Andradas, localizado
-0.7262971	Andrade .
-1.907285	Andrade </caixa>
-1.19	Andrade Gutierrez,
-1.907285	Andrade Marsiglia
-1.907285	Andrade Martins
-1.907285	Andrade Vieira,
-1.907285	Andrade afirmou
-1.907285	Andrade como
-1.907285	Andrade e
-1.907285	Andrade fez
-1.907285	Andrade na
-1.907285	Andrade nunca
-1.606255	Andrade, Junqueira
-1.606255	Andrade, Sérgio
-1.606255	Andrade, com
-1.606255	Andrade, disse
-1.606255	Andrade, filho
-1.606255	Andrade, ou,
-1.606255	Andrade, presidente
-1.606255	Andrade, «Sagarana»,
-0.7031654	Andre usou
-1.004195	Andrea cria
-1.004195	Andrea e
-1.180287	Andreas Moeller,
-1.180287	Andreas não
-1.180287	Andreas von
-0.7031654	Andreato em
-1.004195	Andrei Kozirev,
-1.004195	Andrei Serban,
-1.180287	Andreotti em
-1.180287	Andreotti foi
-1.180287	Andreotti por
-1.004195	Andresen, num
-1.004195	Andresen, presidente
-0.7031654	Andretti .
-1.180287	Andrew Duncan,
-1.180287	Andrew Grove,
-1.180287	Andrew Macdonald,
-0.7031654	Andrezza, mulher
-0.9023883	André .
-2.083377	André </caixa>
-2.083377	André Christovan
-2.083377	André Dias
-1.366091	André Franco
-2.083377	André Garolli,
-2.083377	André Klotzel,
-2.083377	André Lara
-2.083377	André Loubet
-2.083377	André Malraux...
-2.083377	André Tarantelli,
-2.083377	André Trucy,
-2.083377	André Vanderlan
-2.083377	André Walter,
-2.083377	André agora
-1.366091	André e
-2.083377	André na
-2.083377	André se
-2.083377	André só
-1.481317	André, Juvenal
-1.481317	André, Luis
-1.481317	André, em
-1.481317	André, enquanto
-1.481317	André, legal
-1.481317	André, mas
-0.7031654	André; Axel,
-1.004195	Andréa .
-1.004195	Andréa Alexandra
-1.180287	Andrés Perez
-0.4630013	Andrés Pérez,
-1.180287	Andy Garcia
-0.4630013	Andy Warhol
-0.7031654	Ane Girondi
-0.7031654	Anet Loran
-0.7031654	Anexado a
-1.004195	Anfavea acredita
-1.004195	Anfavea é
-1.004195	Angarita elogiou
-1.004195	Angarita à
-0.7031654	Angel Burelli
-1.402135	Angela </caixa>
-1.402135	Angela Alencar,
-1.402135	Angela Amin
-1.402135	Angela Maria
-1.402135	Angela responde
-0.4411678	Angeles .
-1.744558	Angeles </caixa>
-1.744558	Angeles Lakers
-1.744558	Angeles Visitors
-1.744558	Angeles devem
-1.027273	Angeles para
-1.402135	Angeles, Ronaldão
-1.402135	Angeles, costa
-1.402135	Angeles, na
-1.402135	Angeles, que
-1.402135	Angeles, regularizarem
-0.7031654	AngelesDetroitLos Angeles
-0.7031654	AngelesMário Jorge
-1.402135	Angelo .
-1.402135	Angelo Agostini,
-1.402135	Angelo Antonio,
-1.402135	Angelo Milan
-1.402135	Angelo idealizou
-0.7031654	Angerami e
-0.7031654	Anglo .
-0.7031654	Angélica quando
-0.7031654	Angélica, amiga
-0.7031654	Angélico, o
-0.7031654	Anhangabaú .
-1.180287	Anhangabaú, na
-1.180287	Anhangabaú, onde
-1.180287	Anhangabaú, vão
-0.7031654	Anhangabaú», disse
-0.7031654	Anhanguera, que
-0.2869101	Anhembi, que
-0.7031654	Anheuser-Busch, uma
-0.7031654	Anibal Cardoso
-0.7031654	Anilza Leoni?
-0.4630013	Animado com
-1.180287	Animado por
-0.7031654	Animais, afirmou
-0.7031654	Animais» .
-0.7031654	Animals não
-0.7031654	Animals, e
-0.7031654	Anistia Internacional
-1.004195	Anita Hill
-1.004195	Anita Malfatti
-1.305225	Anjinho .
-0.3016971	Anjinho e
-0.7031654	Ankito confessa
-0.4630013	Ann Marie
-1.180287	Ann Marie,
-1.305225	Anna Karina
-1.305225	Anna Lee-Feldstein
-1.305225	Anna Sui,
-1.305225	Anna Wintour,
-1.004195	Anne Sofie
-1.004195	Anne dos
-0.7031654	Annette Sulzbacher
-1.481317	Ano Internacional
-0.7640314	Ano Novo
-1.481317	Ano Novo.»
-1.481317	Ano novo,
-1.481317	Ano passado,
-0.7031654	Anos atrás,
-0.7031654	Another Victim»,
-1.004195	Ansarallah .
-1.004195	Ansarallah foi
-1.305225	Antarctica a
-1.305225	Antarctica com
-1.305225	Antarctica corre
-1.305225	Antarctica e
-1.004195	Antarctica, em
-1.004195	Antarctica, o
-0.7031654	Antarctica? </s>
-0.7031654	Antelo .
-0.2869101	Anteontem à
-1.703165	Anteontem, Ricupero
-1.703165	Anteontem, a
-1.703165	Anteontem, ele
-1.703165	Anteontem, em
-1.703165	Anteontem, foi
-1.703165	Anteontem, haviam
-0.6996371	Anteontem, o
-1.703165	Anteontem, um
-1.033244	Antes da
-2.336634	Antes das
-0.2910458	Antes de
-2.336634	Antes disso,
-0.8265725	Antes do
-2.336634	Antes eu
-2.336634	Antes lateral
-1.619349	Antes mesmo
-2.336634	Antes o
-2.336634	Antes que
-2.336634	Antes recuerdo
-1.548263	Antes, Miragaia
-1.548263	Antes, esse
-1.548263	Antes, estavam
-1.548263	Antes, fazia
-1.548263	Antes, havia
-1.548263	Antes, os
-1.548263	Antes, versões
-1.004195	Anthony Burgess
-1.004195	Anthony Garotinho
-0.7031654	Anthrax esboçou
-0.7031654	Antidrogas lança
-0.7031654	Antiga .
-0.7031654	Antiga, com
-0.7031654	Antigamente pensávamos
-1.004195	Antigamente, as
-1.004195	Antigamente, o
-0.7031654	Antigo .
-1.305225	Antinori .
-1.305225	Antinori afirma
-1.305225	Antinori diz
-1.305225	Antinori teria
-1.004195	Antinori, dizendo-se
-1.004195	Antinori, para
-0.7031654	Antiordem .
-0.7031654	Antique Baru
-0.7031654	Antiques and
-1.004195	Antitruste .
-1.004195	Antitruste a
-1.004195	Antitruste, como
-1.004195	Antitruste, tornando
-0.7031654	Antitruste», disse
-0.7031654	Antlers quer
-1.004195	Antoni Asunción,
-1.004195	Antoni Wit,
-0.7031654	Antonia mas
-0.2869101	Antonieta foi
-2.451353	Antonio .
-2.451353	Antonio Araújo."
-2.451353	Antonio Bandi
-2.451353	Antonio Barros
-2.451353	Antonio Britto
-1.734068	Antonio Candido,
-2.451353	Antonio Canova,
-1.270365	Antonio Carlos
-2.451353	Antonio Colombo,
-2.451353	Antonio Delapieve
-1.270365	Antonio Delfim
-2.451353	Antonio Ermírio
-2.451353	Antonio Fagundes
-2.451353	Antonio Fernando
-2.451353	Antonio Ferreira
-0.845098	Antonio Fleury
-2.451353	Antonio Galvão
-1.734068	Antonio Gomes
-2.451353	Antonio Hennel
-2.451353	Antonio Henrique
-2.451353	Antonio Jorge,
-2.451353	Antonio José
-2.451353	Antonio Luque,
-2.451353	Antonio Maia,
-1.734068	Antonio Manuel
-2.451353	Antonio Matarrese
-1.734068	Antonio Matarrese,
-2.451353	Antonio Nahum,
-2.451353	Antonio Pani
-2.451353	Antonio Pinheiro,
-2.451353	Antonio Rocha
-2.451353	Antonio Roque
-2.451353	Antonio Samaranch,
-2.451353	Antonio Siqueira
-2.451353	Antonio Torres,
-2.451353	Antonio Vladimir
-2.451353	Antonio de
-2.451353	Antonio e
-2.451353	Antonio teria
-1.004195	Antonio, agradou
-1.004195	Antonio, tínhamos
-1.004195	Antonioni .
-1.004195	Antonioni e
-0.7031654	Antony's College
-1.004195	Antonângelo .
-1.004195	Antonângelo acredita
-0.7031654	Antonângelo, começa
-1.180287	Antunes Alves
-1.180287	Antunes Filho
-1.180287	Antunes Godinho,
-1.180287	Antunes, gravado
-1.180287	Antunes, sempre
-1.180287	Antunes, sobre
-2.466593	Antônio .
-2.466593	Antônio Alves
-2.466593	Antônio Amaral
-1.749308	Antônio Augusto
-1.463065	Antônio Britto
-1.463065	Antônio Britto,
-1.749308	Antônio Cabrera,
-0.4210053	Antônio Carlos
-1.463065	Antônio Carlos,
-2.466593	Antônio Correia
-1.749308	Antônio Fleury
-2.466593	Antônio José
-1.749308	Antônio João
-2.466593	Antônio Manuel
-2.466593	Antônio Medina
-2.466593	Antônio Mota
-2.466593	Antônio Nascimento
-2.466593	Antônio Piauí,
-2.466593	Antônio Sanches
-2.466593	Antônio Sólon
-2.466593	Antônio Thomitão
-2.466593	Antônio Vieira
-1.163203	Antônio de
-0.7031654	Antônio, desaparecido
-0.7031654	Antônio: av.
-0.7031654	Anula o
-1.180287	Análise das
-1.180287	Análise do
-1.180287	Análise preliminar
-0.7031654	Anésio Abdalla
-1.004195	Aníbal --
-1.004195	Aníbal Massaini
-2.728471	Ao Ipea
-2.728471	Ao adaptar
-2.728471	Ao anunciar
-2.728471	Ao assinar
-2.728471	Ao assumir
-2.728471	Ao castrar
-1.724943	Ao chegar
-2.011186	Ao comentar
-2.728471	Ao comercialismo
-0.7700334	Ao contrário
-1.21841	Ao contrário,
-2.728471	Ao contrário:
-2.728471	Ao cumprimentar
-2.728471	Ao deparar
-2.728471	Ao descobrir
-2.728471	Ao desembarcar
-2.728471	Ao desviar
-2.728471	Ao embarcar
-2.728471	Ao entregar
-2.728471	Ao escrever
-2.728471	Ao falar,
-2.728471	Ao fazer
-2.728471	Ao fazerem
-2.728471	Ao final
-2.011186	Ao final,
-1.724943	Ao fundo,
-2.728471	Ao hipnotizar
-2.728471	Ao identificar
-2.728471	Ao inquérito
-2.728471	Ao invadir
-2.728471	Ao invés
-2.728471	Ao justificar
-1.547483	Ao lado
-2.728471	Ao liberarem
-2.728471	Ao ligar
-1.724943	Ao longo
-2.728471	Ao menos
-1.21841	Ao mesmo
-2.728471	Ao notar
-2.728471	Ao ouvir
-2.728471	Ao parar
-2.728471	Ao passo
-2.728471	Ao piano
-2.728471	Ao primeiro
-2.728471	Ao que
-2.728471	Ao reconhecer
-2.728471	Ao redor
-2.728471	Ao retornarem
-1.724943	Ao saber
-2.011186	Ao sair,
-1.724943	Ao se
-2.728471	Ao sentir-se
-2.728471	Ao seu
-2.728471	Ao tempo
-2.728471	Ao tentar
-2.728471	Ao todo,
-2.728471	Ao tomar
-2.728471	Ao visitar
-2.011186	Ao vivo,
-2.728471	Ao voltar
-1.817109	Aos dez
-1.817109	Aos gritos,
-1.817109	Aos horticultores
-1.817109	Aos jovens
-1.817109	Aos olhos
-1.099823	Aos poucos,
-1.099823	Aos que
-1.817109	Aos senadores,
-1.817109	Aos teclados,
-1.817109	Aos tempos
-1.817109	Aos trancos
-0.7031654	Apa, Nanci
-0.7031654	Apaixonada, ela
-0.7031654	Apaixonados por
-0.7031654	Apanhe o
-0.7640314	Aparecida .
-1.481317	Aparecida Cogliatti
-1.481317	Aparecida Fernandes
-1.481317	Aparecida Hipólito
-1.481317	Aparecida da
-1.004195	Aparecida, crescer
-1.004195	Aparecida, os
-0.7031654	Aparecido dos
-1.004195	Aparecido, ingressou
-1.004195	Aparecido, que
-0.7031654	Aparelhos Eletrônicos
-1.004195	Aparentemente ele
-1.004195	Aparentemente o
-0.7031654	Aparentemente, as
-0.7031654	Apartamento na
-1.004195	Apas .
-1.004195	Apas que
-0.7031654	Apel-Habermas, de
-0.7031654	Apelações de
-0.7031654	Apelido: </s>
-1.849293	Apenas Riddick
-1.849293	Apenas Rio
-1.849293	Apenas aparentemente
-1.849293	Apenas as
-1.132008	Apenas dois
-1.132008	Apenas o
-1.849293	Apenas para
-1.849293	Apenas que
-1.849293	Apenas sorriu
-1.849293	Apenas três
-1.849293	Apenas um
-1.849293	Apenas uma
-0.7031654	Apenas, não
-0.7031654	Apeoesp, Jane
-0.7031654	Apertaram as
-0.7841416	Apesar da
-1.263098	Apesar das
-0.3070204	Apesar de
-2.566488	Apesar dessas
-2.566488	Apesar deste
-2.566488	Apesar disso
-0.9602329	Apesar disso,
-1.849203	Apesar disto,
-1.056427	Apesar do
-0.7031654	Apia, a
-0.7031654	Apito Final,
